/*
 * Copyright (c) 2025 EdgeImpulse Inc.
 *
 * Generated by Edge Impulse and licensed under the applicable Edge Impulse
 * Terms of Service. Community and Professional Terms of Service
 * (https://edgeimpulse.com/legal/terms-of-service) or Enterprise Terms of
 * Service (https://edgeimpulse.com/legal/enterprise-terms-of-service),
 * according to your product plan subscription (the “License”).
 *
 * This software, documentation and other associated files (collectively referred
 * to as the “Software”) is a single SDK variation generated by the Edge Impulse
 * platform and requires an active paid Edge Impulse subscription to use this
 * Software for any purpose.
 *
 * You may NOT use this Software unless you have an active Edge Impulse subscription
 * that meets the eligibility requirements for the applicable License, subject to
 * your full and continued compliance with the terms and conditions of the License,
 * including without limitation any usage restrictions under the applicable License.
 *
 * If you do not have an active Edge Impulse product plan subscription, or if use
 * of this Software exceeds the usage limitations of your Edge Impulse product plan
 * subscription, you are not permitted to use this Software and must immediately
 * delete and erase all copies of this Software within your control or possession.
 * Edge Impulse reserves all rights and remedies available to enforce its rights.
 *
 * Unless required by applicable law or agreed to in writing, the Software is
 * distributed on an "AS IS" BASIS, WITHOUT WARRANTIES OR CONDITIONS OF ANY KIND,
 * either express or implied. See the License for the specific language governing
 * permissions, disclaimers and limitations under the License.
 */
// Generated on: 04.05.2025 17:12:23

#include <stdio.h>
#include <stdlib.h>
#include "edge-impulse-sdk/tensorflow/lite/c/builtin_op_data.h"
#include "edge-impulse-sdk/tensorflow/lite/c/common.h"
#include "edge-impulse-sdk/tensorflow/lite/micro/micro_mutable_op_resolver.h"
#include "edge-impulse-sdk/porting/ei_classifier_porting.h"

#if EI_CLASSIFIER_PRINT_STATE
#if defined(__cplusplus) && EI_C_LINKAGE == 1
extern "C" {
    extern void ei_printf(const char *format, ...);
}
#else
extern void ei_printf(const char *format, ...);
#endif
#endif

#define STRINGIZE(x) #x
#define STRINGIZE_VALUE_OF(x) STRINGIZE(x)

#if defined (__GNUC__)  /* GNU compiler */
#define ALIGN(X) __attribute__((aligned(X)))
#define DEFINE_SECTION(x) __attribute__((section(x)))
#elif defined (_MSC_VER)
#define ALIGN(X) __declspec(align(X))
#elif defined (__TASKING__) /* TASKING Compiler */
#define ALIGN(X) __align(X)
#define DEFINE_SECTION(x) __attribute__((section(x)))
#elif defined (__ARMCC_VERSION) /* Arm Compiler */
#define ALIGN(X) __ALIGNED(x)
#define DEFINE_SECTION(x) __attribute__((section(x)))
#elif defined (__ICCARM__) /* IAR Compiler */
#define ALIGN(x) __attribute__((aligned(x)))
#define DEFINE_SECTION(x) __attribute__((section(x)))
#elif defined (__clang__) /* LLVM/Clang Compiler */
#define ALIGN(X) __ALIGNED(x)
#define DEFINE_SECTION(x) __attribute__((section(x)))
#endif

#if defined(EI_MODEL_SECTION) && (defined(__GNUC__) || defined(__clang__))
#define MODEL_SECTION(X) __attribute__((section(STRINGIZE_VALUE_OF(X))))
#else
#define MODEL_SECTION(X)
#endif

#ifndef EI_MAX_SCRATCH_BUFFER_COUNT
#ifndef CONFIG_IDF_TARGET_ESP32S3
#define EI_MAX_SCRATCH_BUFFER_COUNT 4
#else
#define EI_MAX_SCRATCH_BUFFER_COUNT 4
#endif // CONFIG_IDF_TARGET_ESP32S3
#endif // EI_MAX_SCRATCH_BUFFER_COUNT

#ifndef EI_MAX_OVERFLOW_BUFFER_COUNT
#define EI_MAX_OVERFLOW_BUFFER_COUNT 10
#endif // EI_MAX_OVERFLOW_BUFFER_COUNT

using namespace tflite;
using namespace tflite::ops;
using namespace tflite::ops::micro;

namespace {

#if defined(EI_CLASSIFIER_ALLOCATION_STATIC_HIMAX) || defined(EI_CLASSIFIER_ALLOCATION_STATIC_HIMAX_GNU)
constexpr int kTensorArenaSize = 2608;
#else
constexpr int kTensorArenaSize = 1584;
#endif

#if defined(EI_CLASSIFIER_ALLOCATION_STATIC)
#if defined (EI_TENSOR_ARENA_LOCATION)
uint8_t tensor_arena[kTensorArenaSize] ALIGN(16) DEFINE_SECTION(STRINGIZE_VALUE_OF(EI_TENSOR_ARENA_LOCATION));
#else
uint8_t tensor_arena[kTensorArenaSize] ALIGN(16);
#endif
#elif defined(EI_CLASSIFIER_ALLOCATION_STATIC_HIMAX)
#pragma Bss(".tensor_arena")
uint8_t tensor_arena[kTensorArenaSize] ALIGN(16);
#pragma Bss()
#elif defined(EI_CLASSIFIER_ALLOCATION_STATIC_HIMAX_GNU)
uint8_t tensor_arena[kTensorArenaSize] ALIGN(16) __attribute__((section(".tensor_arena")));
#else
#define EI_CLASSIFIER_ALLOCATION_HEAP 1
uint8_t* tensor_arena = NULL;
#endif

static uint8_t* tensor_boundary;
static uint8_t* current_location;

template <int SZ, class T> struct TfArray {
  int sz; T elem[SZ];
};

enum used_operators_e {
  OP_FULLY_CONNECTED, OP_SOFTMAX,  OP_LAST
};

struct TensorInfo_t { // subset of TfLiteTensor used for initialization from constant memory
  TfLiteAllocationType allocation_type;
  void* data;
  TfLiteIntArray* dims;
  size_t bytes;
};

typedef struct {
  TfLiteTensor tensor;
  int16_t index;
} TfLiteTensorWithIndex;

typedef struct {
  TfLiteEvalTensor tensor;
  int16_t index;
} TfLiteEvalTensorWithIndex;

TfLiteContext ctx{};
static const int MAX_TFL_TENSOR_COUNT = 4;
static TfLiteTensorWithIndex tflTensors[MAX_TFL_TENSOR_COUNT];
static const int MAX_TFL_EVAL_COUNT = 4;
static TfLiteEvalTensorWithIndex tflEvalTensors[MAX_TFL_EVAL_COUNT];
TfLiteRegistration registrations[OP_LAST];

namespace g0 {
const TfArray<2, int> tensor_dimension0 = { 2, { 1,78 } };
const MODEL_SECTION(EI_MODEL_SECTION) ALIGN(16) float tensor_data1[256] = { 0.0028803632594645023, -0.013902325183153152, 0.021986868232488632, -0.010797077789902687, -0.025569526478648186, -0.0034521641209721565, -0.011357083916664124, 0.026164885610342026, 0.00015784997958689928, -0.012708467431366444, -0.015493227168917656, 0.00055547332158312201, 0.021848820149898529, -0.0085119279101490974, -0.0046857581473886967, 0.035558167845010757, 0.019166029989719391, -0.0058527076616883278, 0.019947128370404243, -0.015881430357694626, -0.011153252795338631, 0.011921290308237076, -0.008959747850894928, -0.013139099813997746, -0.0026087863370776176, 0.023364461958408356, 0.0045070969499647617, -0.0027849811594933271, 0.029937624931335449, -0.018859824165701866, 0.019339283928275108, -0.0014547912869602442, 0.019266573712229729, -0.0070753791369497776, -0.012236692011356354, 0.010614928789436817, -0.018339117988944054, -0.0094081377610564232, 0, -0.011669938452541828, 0.0049945223145186901, 0.014326423406600952, 0.020228853449225426, -0.008740495890378952, 0.0091988202184438705, -0.003887066850438714, 0.0062633580528199673, -0.0067818313837051392, 0.0027662045322358608, 0.010083435103297234, 0.0074407258071005344, 0.00050471664872020483, -0.021800342947244644, -0.0098484624177217484, 0.017681051045656204, 0.03437824547290802, 0.019905788823962212, -0.00033552345121279359, -0.0089874742552638054, 0.001410243334248662, -0.011630185879766941, 0.019893977791070938, 0.029261192306876183, -0.01605508103966713, 0.025709249079227448, 0, 0.016379594802856445, -0.0045282905921339989, 0.0034620962105691433, 0.013635963201522827, 0.011995230801403522, 0.020276511088013649, 0.0064666606485843658, -0.0079424846917390823, 0.025689916685223579, 0.0072726099751889706, -0.002213464118540287, 0.014790683053433895, 0.032351307570934296, -0.019039517268538475, 0.0061476756818592548, 0.0034257050137966871, -0.022008094936609268, -0.0195927694439888, 0.0059101302176713943, -0.0030791216995567083, 0.018110198900103569, 0.00012214461457915604, -0.010406492277979851, 0, -0.015026155859231949, -0.0098891956731677055, 0.018215635791420937, -0.017266325652599335, 0.0039077484980225563, 0.015745759010314941, 0.0017859917134046555, 0.0019658992532640696, 0.00059588212752714753, -0.0048146299086511135, -0.01403531152755022, -0.0068448190577328205, -0.008397124707698822, -0.012893476523458958, 0.010128887370228767, -0.0024606985971331596, 0.034776564687490463, 0.0036634458228945732, 0.0015489660436287522, -0.013694112189114094, -0.0014260635944083333, 0.019331242889165878, 0.031109055504202843, -0.011331486515700817, 0.0080840373411774635, -0.0068201706744730473, -0.012422093190252781, -0.00308828498236835, 0.0059725143946707249, -0.0095582660287618637, -0.010325922630727291, -0.019870912656188011, 0.047887001186609268, -0.019416222348809242, 0.017220268025994301, 0.023032300174236298, -0.0046759028919041157, -8.3997438196092844e-05, -0.010316428728401661, -0.0032808105461299419, 0.010911119170486927, -0.0026061504613608122, -0.017739873379468918, 0.024583309888839722, 0.0066451635211706161, 0.020043887197971344, -0.0056399144232273102, -0.00015117011207621545, -0.0028885914944112301, -0.0029754170682281256, -0.024917569011449814, -0.0028310054913163185, -0.017080608755350113, -0.0085504120215773582, -0.0045697269961237907, -0.0026614819653332233, -0.024072472006082535, 0.023129059001803398, 0.0062507814727723598, 0.047001976519823074, 0.0093854973092675209, 0.0033032172359526157, 0, 0.00019586678536143154, 0.010676571168005466, 0.009631001390516758, -0.0037336086388677359, -0.0068017276935279369, -0.0012236207257956266, 0.0045214183628559113, -0.014117948710918427, -0.012179984711110592, -0.00034661139943636954, 0.026404038071632385, 0.0030378969386219978, -0.013470722362399101, -0.0051963753066956997, -0.0021075967233628035, 0.013045567087829113, 0.002859288128092885, -0.0084471823647618294, -0.0065531902946531773, 0.030942255631089211, -0.015466887503862381, -0.013063504360616207, -0.00052210199646651745, 0.038402564823627472, 0.0078220665454864502, 0.00069713394623249769, -0.0086313998326659203, 0.030600309371948242, -0.012314342893660069, -0.0036643638741225004, 0.0099411606788635254, 0.0025435930583626032, 0.021872611716389656, -0.005273087415844202, -0.015952268615365028, 0.015216434374451637, -0.0077246781438589096, 0.0087542477995157242, -0.0079345600679516792, 0.029437728226184845, 0.012537086382508278, 0.0042573432438075542, 0.015194988809525967, -0.0063248514197766781, -0.010930801741778851, -0.018659505993127823, 0.014172015711665154, -0.008576342836022377, 0.021882787346839905, 0.023684635758399963, -0.0093054454773664474, -0.0032226829789578915, 0.011871884576976299, -0.0063547822646796703, -0.012616338208317757, -0.001952152349986136, 0.0060037695802748203, 0.038511145859956741, 0.0030782714020460844, 0.011810929514467716, -0.014481103979051113, 0.0092979110777378082, 0.0082624526694417, 0.01440860889852047, -0.011664452962577343, -0.0024970178492367268, 0.029657155275344849, 0.020541081205010414, -0.013426578603684902, 0.00015044925385154784, -0.011746539734303951, -0.0066791344434022903, 0.0059345550835132599, -0.0076800286769866943, -0.0034751624334603548, -0.0056840819306671619, -0.012757841497659683, 0.0021946143824607134, -0.0094953300431370735, -0.0078803272917866707, 0.024999316781759262, -0.0057898317463696003, -0.0064625795930624008, -0.015871318057179451, -0.011644263751804829, -0.0036426710430532694, 0.013138121925294399, -0.0047857686877250671, -0.013712292537093163, 0.022774288430809975, 0.0021324027329683304, -0.0031038338784128428, 0.027044570073485374, 0.0033018756657838821, -0.011390917003154755, -0.00074760953430086374, -0.0025714165531098843, 0.0086331125348806381, 0.026228966191411018, -0.005922374315559864, -0.0028419785667210817, 0.010261297225952148, -0.0073835779912769794, };
const TfArray<1, int> tensor_dimension1 = { 1, { 256 } };
const MODEL_SECTION(EI_MODEL_SECTION) ALIGN(16) float tensor_data2[4] = { -0.0021575512364506721, -0.012920752167701721, 0.0028680018149316311, 0.0088394945487380028, };
const TfArray<1, int> tensor_dimension2 = { 1, { 4 } };
const MODEL_SECTION(EI_MODEL_SECTION) ALIGN(16) float tensor_data3[256*78] = { 
  0.0022398671135306358, 0.027991350740194321, -0.045085623860359192, -0.085002340376377106, 0.098588913679122925, -0.023376915603876114, -0.064838148653507233, 0.077871493995189667, -0.063100829720497131, -0.015315856784582138, 0.10165098309516907, 0.10654725134372711, 0.03907366469502449, -0.11002026498317719, 0.037724509835243225, 0.017199991270899773, 0.11620604991912842, -0.061223782598972321, 0.04530739039182663, -0.10987237095832825, -0.010277965106070042, -0.12444193661212921, -0.037045739591121674, 0.0071862265467643738, 0.0792866051197052, 0.046314258128404617, -0.037322722375392914, 0.022530684247612953, -0.075231969356536865, -0.03985108807682991, 0.10559970885515213, 0.014225899241864681, 0.074053704738616943, -0.062279507517814636, 0.067268513143062592, -0.091429218649864197, -0.010414861142635345, 0.11930137127637863, -0.01559094712138176, 0.084895730018615723, -0.011312318034470081, 0.055901505053043365, -0.036107722669839859, 0.045675717294216156, 0.0045445393770933151, 0.11821117252111435, 0.037237703800201416, 0.11273473501205444, 0.12649953365325928, 0.069364607334136963, -0.017109643667936325, 0.051063351333141327, -0.092128634452819824, 0.048708695918321609, -0.099879369139671326, -0.11115296185016632, -0.034352395683526993, 0.01218822505325079, 0.069986559450626373, 0.032859504222869873, -0.090337291359901428, 0.0064238347113132477, -0.014563794247806072, -0.044007651507854462, 0.072543017566204071, 0.072099588811397552, 0.11582225561141968, 0.04996088519692421, -0.099617466330528259, -0.045546121895313263, -0.033293049782514572, 0.050724230706691742, -0.125732421875, 0.0070317564532160759, -0.064968094229698181, 0.027769302949309349, 0.080573491752147675, -0.11075533926486969, 
  -0.13182628154754639, -0.039648663252592087, -0.14245001971721649, -0.033917997032403946, -0.033217728137969971, -0.037681933492422104, -0.10738225281238556, -0.12744751572608948, -0.11195404082536697, 0.031375948339700699, -0.1004575714468956, -0.12224285304546356, -0.091349959373474121, -0.058141212910413742, 0.044564604759216309, 0.085932381451129913, 0.021949108690023422, -0.046842142939567566, -0.1167515441775322, 0.018036646768450737, -0.050461087375879288, -0.069464884698390961, 0.11664815247058868, -0.032986313104629517, -0.050038326531648636, -0.025952788069844246, -0.01667880080640316, -0.0019811841193586588, 0.025403287261724472, 0.09831131249666214, 0.061273533850908279, 0.033512488007545471, 0.074809059500694275, -0.097604386508464813, -0.10887948423624039, 0.015966895967721939, 0.053284868597984314, -0.065093941986560822, -0.024747194722294807, 0.087462857365608215, -0.10928718000650406, -0.026587836444377899, -0.069293864071369171, -0.055726904422044754, -0.12781575322151184, -0.037585936486721039, -0.019384061917662621, -0.0070238746702671051, 0.01824025996029377, -0.079484902322292328, 0.011089756153523922, -0.074228473007678986, -0.0030543315224349499, 0.018493123352527618, -0.050769932568073273, 0.0084092225879430771, 0.0095520652830600739, 0.060544908046722412, 0.13116137683391571, -0.04419032484292984, -0.079771101474761963, 0.039557497948408127, 0.03019319474697113, -0.047856051474809647, 0.087586440145969391, 0.031579609960317612, 0.061795365065336227, 0.040405459702014923, -0.12725779414176941, 0.073710739612579346, 0.033207464963197708, -0.057574845850467682, -0.066176377236843109, -0.03790862113237381, 0.076484382152557373, 0.017694229260087013, 0.10716165602207184, 0.0092027736827731133, 
  0.1069122701883316, -0.14436294138431549, -0.045888867229223251, -0.088122785091400146, 0.10320984572172165, -0.019079212099313736, 0.13078776001930237, 0.032618004828691483, 0.067138314247131348, -0.028610518202185631, -0.11724323779344559, 0.086771905422210693, 0.077561989426612854, 0.03213181346654892, -0.01828683540225029, -0.021833250299096107, -0.0082399612292647362, -0.13094501197338104, -0.041629023849964142, -0.085737057030200958, -0.1052764505147934, -0.095236241817474365, -0.012164603918790817, -0.12746550142765045, 0.024658223614096642, -0.011746135540306568, 0.041628133505582809, -0.041402626782655716, -0.0049803908914327621, 0.042482592165470123, -0.054810024797916412, 0.076646476984024048, -0.093529537320137024, -0.13616423308849335, -0.026784341782331467, -0.047803118824958801, -0.056512396782636642, -0.033284489065408707, 0.057329509407281876, -0.12654753029346466, 0.057577095925807953, 0.15148073434829712, -0.054185096174478531, -0.068088993430137634, 0.014176861383020878, -0.11328500509262085, -0.0040536490269005299, -0.05416150763630867, 0.067847728729248047, 0.048347163945436478, -0.037649210542440414, 0.089977003633975983, -0.015545493923127651, -0.062874093651771545, 0.050022229552268982, 0.091724678874015808, 0.0086118923500180244, 0.003880838630720973, 0.034043431282043457, -0.018354879692196846, 0.055431202054023743, -0.06068812683224678, 0.034773983061313629, -0.082256965339183807, 0.019676148891448975, 0.10528554767370224, 0.084350436925888062, 0.021856853738427162, 0.04891112819314003, -0.067647494375705719, -0.13400740921497345, -0.14933329820632935, -0.1302255243062973, -0.1410517692565918, 0.013231132179498672, 0.077256649732589722, 0.10306160897016525, -0.098364308476448059, 
  -0.11781584471464157, 0.10117076337337494, -0.0082673849537968636, 0.024552576243877411, -0.041549850255250931, -0.092462562024593353, -0.11513795703649521, 0.1316649466753006, 0.097685918211936951, -0.05557965487241745, 0.037428934127092361, 0.057927381247282028, 0.11003523319959641, -0.062218174338340759, -0.027324698865413666, -0.003690226236358285, 0.055448334664106369, 0.070463314652442932, -0.10294260829687119, -0.02704668790102005, -0.095413975417613983, 0.080148458480834961, 0.056164190173149109, -0.080170683562755585, 0.10531802475452423, -0.058992456644773483, -0.14111612737178802, -0.064509101212024689, 0.0068804998882114887, -0.024002643302083015, 0.025220617651939392, -0.043644152581691742, -0.11690804362297058, 0.031046822667121887, -0.11301890015602112, -0.0057048052549362183, 0.13413208723068237, -0.092530541121959686, -0.059837270528078079, -0.016410473734140396, -0.12578991055488586, 0.024098286405205727, 0.12141779810190201, 0.0044635175727307796, -0.0998062863945961, -0.0058903787285089493, 0.11538054794073105, 0.031134296208620071, -0.035909544676542282, -0.051222298294305801, -0.0086785070598125458, 0.064030393958091736, 0.11919183284044266, 0.12394087761640549, 0.073047630488872528, -0.14103387296199799, 0.064039863646030426, -0.090703591704368591, 0.03077390231192112, 0.14149756729602814, 0.067523173987865448, -0.050930645316839218, 0.11202254146337509, -0.092670835554599762, 0.10270366817712784, -0.040091831237077713, -0.075134105980396271, 0.12106943875551224, -0.02046048641204834, -0.12229156494140625, 0.0081074386835098267, -0.010510283522307873, 0.10349968075752258, -0.063129037618637085, 0.06489909440279007, 0.069872632622718811, -0.069185979664325714, -0.010320938192307949, 
  0.13159613311290741, -0.042267311364412308, -0.056200161576271057, -0.13123710453510284, -0.11406494677066803, -0.00077506568050011992, 0.048515055328607559, -0.049857951700687408, 0.058120481669902802, 0.11378224194049835, -0.084674924612045288, -0.023024236783385277, 0.043531179428100586, 0.0094364099204540253, 0.09892706573009491, 0.056733224540948868, -0.10805424302816391, 0.0078748762607574463, 0.015447084791958332, -0.031126054003834724, 0.068891823291778564, 0.12989895045757294, -0.081159777939319611, 0.12734253704547882, 0.060853458940982819, -0.10597415268421173, -0.053098402917385101, 0.088786453008651733, 0.1117013543844223, -0.037126783281564713, -0.10169371962547302, -0.1550021767616272, 0.099905982613563538, 0.014424527995288372, 0.041617166250944138, -0.027797611430287361, 0.1003742590546608, -0.070588685572147369, -0.13877931237220764, -0.053979307413101196, 0.067134425044059753, 0.034319113940000534, -0.061787497252225876, 0.086974538862705231, -0.15265229344367981, 0.076394923031330109, 0.020042479038238525, -0.0061306431889533997, 0.00013276781828608364, 0.0088492613285779953, -0.063735559582710266, 0.032300103455781937, -0.0087456153705716133, 0.043725680559873581, 0.084060326218605042, -0.096419788897037506, 0.023537987843155861, -0.093454860150814056, -0.016099462285637856, 0.065508902072906494, 0.0067802048288285732, 0.11923185735940933, 0.062084116041660309, 0.12025214731693268, -0.10247831791639328, 0.089452572166919708, -0.025031788274645805, 0.10487531125545502, 0.091184459626674652, 0.057660654187202454, 0.13307146728038788, 0.11225861310958862, 0.033449050039052963, -0.028729137033224106, 0.034877661615610123, -0.056084431707859039, -0.0040970924310386181, 0.008301587775349617, 
  -0.055352997034788132, 0.014227708801627159, -0.11497730016708374, 0.087578482925891876, 0.09452374279499054, -0.047822531312704086, -0.078519821166992188, 0.062301453202962875, 0.026251122355461121, 0.082083359360694885, -0.057465888559818268, 0.023180495947599411, -0.094375975430011749, 0.093155063688755035, -0.016914039850234985, 0.066712960600852966, 0.021201068535447121, -0.10939591377973557, -0.099640652537345886, -0.076644636690616608, 0.017539383843541145, -0.12497300654649734, -0.027652323246002197, 0.047807268798351288, -0.10548394173383713, 0.066821321845054626, 0.1437753438949585, 0.08732711523771286, -0.060343269258737564, -0.1043149009346962, -0.089180335402488708, 0.10082654654979706, -0.038349747657775879, 0.042709052562713623, -0.084510840475559235, -0.055221084505319595, 0.043327003717422485, -0.038061086088418961, 0.14250814914703369, 0.13246975839138031, 0.092035830020904541, -0.10945761948823929, -0.024702638387680054, 0.12810690701007843, -0.0060715023428201675, 0.091697826981544495, -0.12061808258295059, -0.025342119857668877, -0.10462042689323425, -0.070975877344608307, 0.040349796414375305, -0.034994017332792282, -0.033098712563514709, -0.059751491993665695, 0.070152603089809418, 0.036841932684183121, 0.007052732165902853, -0.06146177276968956, 0.026423102244734764, 0.078076727688312531, 0.025823982432484627, 0.11514638364315033, -0.061691083014011383, 0.12085437029600143, -0.024633167311549187, 0.13765990734100342, -1.8128932424588129e-05, 0.0047414535656571388, -0.085477270185947418, 0.080450758337974548, -0.025185786187648773, -0.074747234582901001, 0.047122791409492493, -0.078594446182250977, 0.091119386255741119, -0.10842707008123398, 0.12221135944128036, -0.059731524437665939, 
  0.054706379771232605, 0.075240358710289001, -0.13225570321083069, 0.093870356678962708, -0.091329105198383331, 0.053199596703052521, 0.061916161328554153, -0.11661134660243988, -0.096371553838253021, 0.0085763139650225639, -0.046093262732028961, 0.10604999959468842, 0.05102737620472908, 0.041840985417366028, 0.10944171249866486, 0.074119105935096741, -0.1115473210811615, 0.10399574786424637, 0.07824232429265976, -0.034834258258342743, 0.10135962814092636, 0.035232968628406525, -0.0025652695912867785, -0.051828388124704361, -0.06599743664264679, -0.023877929896116257, -0.062118221074342728, 0.062923699617385864, -0.082645073533058167, -0.048464633524417877, 0.033182725310325623, 0.044661227613687515, -0.12630799412727356, -0.049287255853414536, -0.061968132853507996, -0.13585759699344635, 0.036178402602672577, -0.041446886956691742, -0.078037045896053314, -0.081357657909393311, -0.078488975763320923, -0.12592624127864838, 0.081618539988994598, -0.037172604352235794, -0.11803094297647476, 0.096010848879814148, -0.062707573175430298, -0.075693562626838684, 0.070916503667831421, 0.092896297574043274, -0.093712784349918365, -0.030382096767425537, -0.10472732037305832, 0.097362935543060303, 0.068004988133907318, 0.036860007792711258, 0.011366424150764942, -0.041138812899589539, 0.047013051807880402, -0.10913143306970596, 0.12446802109479904, -0.014637595042586327, -0.077432706952095032, -0.097562171518802643, 0.096947982907295227, 0.091394051909446716, 0.086903974413871765, 0.012993571348488331, 0.12246907502412796, -0.086781404912471771, -0.04184192419052124, 0.031906578689813614, 0.016351813450455666, -0.068617008626461029, -0.045151636004447937, 0.13022379577159882, -0.10231687128543854, 0.12011463195085526, 
  0.061543893069028854, 0.03181774914264679, 0.007802372332662344, 0.04991237074136734, 0.073833443224430084, 0.067873768508434296, 0.13529473543167114, 0.010531013831496239, 0.11766815930604935, -0.09244527667760849, -0.016410287469625473, 0.088947415351867676, -0.049617432057857513, -0.13722515106201172, 0.049811400473117828, 0.059239652007818222, 0.0085454070940613747, 0.048805974423885345, 0.023436438292264938, 0.074106544256210327, -0.038869727402925491, -0.10294064879417419, 0.014837880618870258, -0.15936106443405151, -0.06551254540681839, 0.080641575157642365, -0.014876987785100937, -0.11512616276741028, 0.0033997122664004564, 0.143483966588974, 0.014742124825716019, -0.07563105970621109, -0.052538525313138962, -0.1158192902803421, -0.10853294283151627, -0.11964695900678635, 0.12368761003017426, -0.029236339032649994, -0.091056443750858307, 0.13384968042373657, 0.036858882755041122, 0.092237852513790131, 0.01970769464969635, 0.13088828325271606, 0.027846984565258026, 0.13326412439346313, -0.030498713254928589, -0.076132006943225861, -0.049037493765354156, -0.095760107040405273, 0.11992873251438141, -0.058492053300142288, 0.013348549604415894, 0.14039736986160278, 0.15733206272125244, 0.14894481003284454, -0.066868230700492859, 0.14160946011543274, -0.14868049323558807, -0.12975724041461945, -0.17134147882461548, -0.12819616496562958, 0.0098474733531475067, 0.0021691324654966593, 0.0090875038877129555, -0.018157113343477249, -0.10207600146532059, 0.044189170002937317, 0.15697745978832245, -0.046348825097084045, 0.045133881270885468, -0.12417896091938019, -0.12861074507236481, 0.062144260853528976, -0.18620939552783966, -0.016761938109993935, -0.058181814849376678, 0.062573090195655823, 
  0.042865578085184097, -0.093541570007801056, -0.058754831552505493, -0.072140157222747803, -0.12785299122333527, -0.01311951782554388, -0.050976663827896118, 0.041383426636457443, -0.038200173527002335, 0.0067687998525798321, -0.11735733598470688, 0.018715247511863708, 0.037180088460445404, 0.10407889634370804, -0.13144207000732422, -0.0025758410338312387, -0.1049019992351532, -0.043683905154466629, -0.13969898223876953, -0.10989837348461151, -0.1221889927983284, 0.095241785049438477, -0.011282238177955151, -0.042498055845499039, -0.068242698907852173, 0.094548031687736511, 0.10363016277551651, -0.079574763774871826, -0.081521615386009216, -0.013701848685741425, 0.094644322991371155, 0.054635502398014069, 0.027358746156096458, 0.022159406915307045, -0.10075131058692932, -0.05790618434548378, 0.084663547575473785, -0.089460678398609161, -0.01722416840493679, -0.077648051083087921, -0.1054137721657753, 0.12539632618427277, -0.036790166050195694, 0.12854741513729095, -0.078351601958274841, -0.033494073897600174, -0.062798812985420227, -0.015963414683938026, -0.1369425356388092, 0.080127276480197906, 0.06933196634054184, 0.081897251307964325, 0.13137376308441162, 0.10301989316940308, 0.12384156882762909, 0.065136820077896118, 0.089423954486846924, -0.065150491893291473, 0.082353770732879639, -0.046233370900154114, -0.028947817161679268, -0.058817651122808456, -0.010015803389251232, 0.084534391760826111, -0.0076245800592005253, -0.024785097688436508, 0.0043236436322331429, 0.015910707414150238, 0.0054831448942422867, 0.094489894807338715, -0.055756654590368271, 0.091079875826835632, 0.072436206042766571, -0.078774355351924896, -0.089763790369033813, 0.095171764492988586, 0.034499377012252808, -0.12619347870349884, 
  -0.12272249907255173, 0.070339903235435486, -0.031111603602766991, 0.083174727857112885, 0.058799747377634048, -0.0080762067809700966, -0.029365221038460732, 0.032914113253355026, 0.0028438940644264221, 0.06567808985710144, -0.069101415574550629, -0.0036956372205168009, -0.050017613917589188, -0.13210839033126831, 0.011301446706056595, -0.065539941191673279, -0.11335356533527374, -0.012287015095353127, 0.096248075366020203, 0.01735849492251873, -0.094800770282745361, 0.016598919406533241, 0.017036586999893188, 0.042066715657711029, 0.065664291381835938, -0.060941223055124283, 0.065043732523918152, 0.042176946997642517, 0.082409843802452087, -0.012368368916213512, 0.12247750163078308, -0.095489099621772766, 0.11076489835977554, 0.073250815272331238, -0.022947128862142563, -0.040074899792671204, -0.056465510278940201, -0.064491637051105499, -0.040227301418781281, 0.10743477940559387, -0.11910410225391388, -0.028015445917844772, -0.079596370458602905, -0.093704491853713989, -0.052710644900798798, -0.12176670879125595, -0.020068250596523285, -0.084255829453468323, 0.034973818808794022, -0.084343507885932922, -0.034322045743465424, -0.0080845840275287628, -0.040013644844293594, 0.085362344980239868, 0.012462068349123001, -0.11677253991365433, -0.072320796549320221, -0.024135658517479897, 0.094816870987415314, -0.093678079545497894, 0.086782217025756836, -0.055623222142457962, 0.023317877203226089, 0.13831622898578644, -0.010008440352976322, -0.12543851137161255, -0.021294482052326202, 0.036458700895309448, -0.031729318201541901, -0.10268781334161758, -0.013930143788456917, 0.018988491967320442, -0.01767103374004364, -0.077053844928741455, 0.11215130984783173, 0.02303970605134964, -0.10972507297992706, 0.05812198668718338, 
  0.12760335206985474, 0.1029721274971962, 0.1196286603808403, -0.12563993036746979, 0.038685489445924759, 0.017855411395430565, 0.087738707661628723, -0.10901281237602234, 0.017062516883015633, 0.063042484223842621, 0.039822258055210114, 0.056167729198932648, 0.032183293253183365, -0.047214008867740631, 0.11981759965419769, 0.081883713603019714, 0.10370110720396042, 0.09772801399230957, 0.021018948405981064, -0.046678073704242706, -0.021669402718544006, 0.085458867251873016, -0.070322789251804352, -0.043484851717948914, 0.066861256957054138, 0.0038608107715845108, -0.08032573014497757, 0.095493264496326447, 0.098950251936912537, 0.061423122882843018, 0.12060441076755524, 0.029954198747873306, -0.050457686185836792, 0.09714200347661972, -0.11058223247528076, 0.09258405864238739, -0.0055837924592196941, -0.081850096583366394, -0.090136386454105377, 0.049063939601182938, -0.087336406111717224, 0.076614312827587128, -0.078982867300510406, 0.041221518069505692, -0.043053776025772095, -0.11453210562467575, 0.069429978728294373, -0.11609841883182526, -0.061961229890584946, -0.1157405748963356, -0.042916432023048401, -0.12660036981105804, -0.017691969871520996, 0.060083687305450439, -0.0031336017418652773, 0.063798621296882629, -0.061136122792959213, -0.12887530028820038, -0.0259355828166008, 0.0010398022131994367, 0.0051610120572149754, 0.015497753396630287, 0.10159721225500107, -0.025892630219459534, -0.13886149227619171, -0.094224989414215088, 0.094310633838176727, 0.026221960783004761, -0.1438816636800766, -0.070583328604698181, -0.036521807312965393, 0.032995797693729401, -0.054431337863206863, -0.018599430099129677, -0.097193233668804169, -0.016209308058023453, -0.080302268266677856, -0.043601758778095245, 
  0.0022008949890732765, 0.064570844173431396, -0.097101584076881409, 0.025074275210499763, 0.013563200831413269, 0.11135197430849075, 0.0876297727227211, 0.054961323738098145, 0.10242690145969391, -0.071303226053714752, 0.134293332695961, 0.079214200377464294, -0.08050992339849472, 0.076647832989692688, -0.067820169031620026, -0.0087707247585058212, 0.10228399187326431, -0.096187621355056763, 0.10591579973697662, 0.02342754602432251, 0.071817100048065186, -0.075519956648349762, 0.087791353464126587, 0.013951225206255913, -0.026101585477590561, -0.045195505023002625, 0.069423161447048187, -0.010232920758426189, 0.098492607474327087, -0.041858460754156113, -0.078574724495410919, -0.087708137929439545, 0.022930406033992767, -0.079310894012451172, -0.12088498473167419, 0.0035026122350245714, 0.087524436414241791, 0.11322047561407089, -0.11145226657390594, -0.11993662267923355, -0.085941903293132782, 0.046001479029655457, 0.049083024263381958, 0.13304167985916138, -0.13894465565681458, 0.053133442997932434, -0.048263296484947205, -0.023668427020311356, 0.0693851038813591, -0.11517827957868576, 0.046544943004846573, 0.044495157897472382, 0.1056671142578125, -0.12293508648872375, 0.038755793124437332, 0.038369044661521912, 0.041667919605970383, 0.11305069923400879, 0.14524580538272858, -0.0039274636656045914, -0.0084177758544683456, -0.058461625128984451, 0.12251560389995575, -0.11257428675889969, 0.11479450762271881, -0.13709063827991486, 0.12675982713699341, -0.12139737606048584, -0.12512564659118652, -0.055021468549966812, -0.039846409112215042, 0.13217432796955109, -0.06174054741859436, 0.15280653536319733, 0.15405654907226562, -0.11064410209655762, -0.072540037333965302, -0.050631631165742874, 
  -0.057156205177307129, -0.051813554018735886, 0.088313452899456024, -0.058386761695146561, 0.0009251068695448339, 0.030239909887313843, -0.05460907518863678, -0.047956589609384537, 0.062837883830070496, 0.030982708558440208, -0.10165341943502426, -0.038367658853530884, 0.027493560686707497, -0.092466548085212708, 0.13304781913757324, 0.027421221137046814, -0.015553604811429977, 0.049991585314273834, -0.10877274721860886, -0.12255801260471344, -0.063900910317897797, -0.021616844460368156, 0.014282048679888248, 0.015564931556582451, -0.0090749422088265419, -0.17105232179164886, 0.033061694353818893, -0.016938572749495506, -0.00026294932467862964, -0.0060104620642960072, -0.031537566334009171, -0.10094007104635239, 0.065262563526630402, 0.10237488150596619, -0.076456323266029358, 0.079255789518356323, -0.14772570133209229, 0.069567754864692688, -0.030948683619499207, -0.0022773139644414186, 0.078963302075862885, -0.095548257231712341, 0.14046688377857208, 0.060797922313213348, -0.066509954631328583, -0.0026582425925880671, -0.090031318366527557, -0.16285605728626251, -0.017472071573138237, 0.016101069748401642, -0.11381885409355164, -0.070974573493003845, 0.024559088051319122, -0.13655003905296326, 0.15140025317668915, 0.018460119143128395, 0.1221102774143219, -0.13571928441524506, -0.080194145441055298, -0.12175456434488297, 0.030546318739652634, -0.11657211184501648, -0.16590003669261932, -0.08149082213640213, -0.10171393305063248, -0.1497146338224411, 0.03586171567440033, 0.1371920108795166, -0.088244237005710602, -0.026120815426111221, -0.15505240857601166, -0.050000961869955063, 0.047718767076730728, -0.15683521330356598, 0.043481931090354919, 0.021407440304756165, -0.15432378649711609, -0.12593770027160645, 
  0.062767311930656433, 0.0060607781633734703, 0.029357798397541046, -0.059619039297103882, -0.068475425243377686, 0.10034231841564178, -0.028191938996315002, 0.018515745177865028, -0.0045978990383446217, 0.050492145121097565, 0.046782016754150391, -0.088091820478439331, 0.096973851323127747, 0.038957186043262482, 0.14035043120384216, 0.058985371142625809, 0.07309114933013916, 0.050474714487791061, 0.098814986646175385, -0.13100576400756836, 0.026430059224367142, 0.04343780130147934, -0.094444327056407928, 0.023606371134519577, -0.0045919301919639111, -0.081057630479335785, -0.064581088721752167, 0.18007199466228485, -0.028752299025654793, 0.0593731589615345, 0.087044201791286469, -0.065628506243228912, 0.12255539745092392, -0.11694628000259399, 0.14224712550640106, 0.072511710226535797, -0.084692306816577911, -0.038047913461923599, 0.076291874051094055, 0.10770604759454727, -0.10940256714820862, 0.08487488329410553, 0.022897712886333466, -0.073550216853618622, 0.052004877477884293, 0.00035493320319801569, -0.13514955341815948, -0.0099069774150848389, 0.029416009783744812, 0.016311697661876678, 0.089901335537433624, -0.079664565622806549, -0.12112061679363251, -0.16280001401901245, -0.075523950159549713, -0.076121725142002106, 0.042181510478258133, 0.11518367379903793, -0.050832804292440414, 0.098075278103351593, -0.059160921722650528, 0.1399766206741333, -0.048492234200239182, 0.069225877523422241, -0.086159557104110718, 0.024178104475140572, 0.050884615629911423, 0.043120924383401871, 0.011863530613481998, -0.0036679343320429325, 0.0094156460836529732, 0.13006259500980377, 0.14671051502227783, 0.014376343227922916, 0.12507595121860504, 0.16556265950202942, 0.062630206346511841, 0.038505829870700836, 
  0.11517312377691269, -0.10624723136425018, 0.13763433694839478, -0.11034287512302399, -0.10449917614459991, 0.0097415298223495483, -0.092242404818534851, -0.099518455564975739, -0.097947761416435242, -0.10196702182292938, 0.12371014058589935, -0.094648085534572601, -0.049701247364282608, -0.026244189590215683, 0.083876244723796844, -0.043888892978429794, 0.057142782956361771, -0.094825588166713715, 0.042081438004970551, -0.0095632616430521011, 0.056981559842824936, -0.077359400689601898, 0.038980115205049515, -0.039599388837814331, 0.043079540133476257, -0.052405644208192825, -0.073106244206428528, -0.024789441376924515, -0.083695448935031891, 0.024912849068641663, 0.07030545175075531, 0.045301236212253571, 0.11993604153394699, -0.092225439846515656, -0.10284343361854553, -0.12395097315311432, 0.06336502730846405, 0.09815959632396698, 0.073436848819255829, 0.048761449754238129, 0.01533656008541584, -0.031345207244157791, 0.088109783828258514, 0.097008652985095978, -0.017927046865224838, -0.067916937172412872, -0.10976633429527283, -0.11718043684959412, 0.028049204498529434, 0.12050960212945938, 0.00056127493735402822, 0.038989126682281494, 0.055760327726602554, 0.080909088253974915, -0.062439668923616409, -0.028012940660119057, -0.038783490657806396, -0.10221811383962631, -0.040283150970935822, -0.017890619114041328, -0.069626994431018829, 0.10458219051361084, 0.082054793834686279, 0.074705734848976135, 0.06941811740398407, 0.12526144087314606, 0.095445424318313599, -0.075935155153274536, -0.048126064240932465, -0.061080481857061386, -0.00099534052424132824, 0.078316129744052887, 0.059941608458757401, 0.10609737038612366, -0.0069687506183981895, -0.10803917050361633, 0.005155797116458416, 0.031989511102437973, 
  0.056307889521121979, 0.097701475024223328, -0.012231186032295227, 0.12817966938018799, 0.068479418754577637, 0.066158197820186615, 0.14474283158779144, -0.008963119238615036, -0.045107252895832062, 0.042227678000926971, -0.04349493607878685, 0.0070573156699538231, 0.068351276218891144, -0.066970303654670715, -0.025178251788020134, 0.049475178122520447, 0.084738537669181824, -0.033640939742326736, 0.160456582903862, -0.10914485901594162, 0.14625145494937897, 0.13539214432239532, 0.095315068960189819, -0.07633092999458313, 0.11893507093191147, 0.049377128481864929, -0.071406960487365723, 0.0039973920211195946, -0.082792259752750397, 0.089637212455272675, -0.02767140232026577, -0.08900124579668045, 0.060416929423809052, 0.085655048489570618, -0.099678762257099152, -0.069016911089420319, 0.12684255838394165, 0.1347932368516922, 0.09058128297328949, -0.11820836365222931, 0.095060408115386963, 0.069076366722583771, 0.044555447995662689, -0.0010810596868395805, -0.073485247790813446, -0.04111417755484581, -0.12257284671068192, -0.069482304155826569, -0.055765725672245026, 0.028822027146816254, 0.0048616686835885048, -0.031039943918585777, 0.028083415701985359, 0.032779864966869354, 0.071497045457363129, 0.051429543644189835, -0.028276994824409485, -0.14935733377933502, -0.13605795800685883, -0.12851157784461975, -0.052024517208337784, 0.099606968462467194, -0.16538172960281372, -0.12184808403253555, -0.13809528946876526, 0.062884986400604248, 0.095904983580112457, 0.14317423105239868, -0.064712710678577423, -0.0056733228266239166, -0.12971605360507965, 0.051918346434831619, -0.068647041916847229, 0.061674941331148148, -0.067100182175636292, 0.045614033937454224, -0.09728492796421051, 0.082271277904510498, 
  -0.028620906174182892, 0.027620274573564529, 0.10274957120418549, 0.082649149000644684, 0.039729110896587372, -0.093116253614425659, 0.10816048830747604, 0.017241505905985832, -0.036517534404993057, -0.05087573453783989, 0.15079508721828461, 0.054359525442123413, -0.038457728922367096, -0.053867384791374207, -0.052845027297735214, -0.088016286492347717, -0.099320396780967712, -0.15158839523792267, -0.026655673980712891, 0.12131422758102417, 0.077409163117408752, -0.14541848003864288, -0.067054055631160736, -0.049665115773677826, 0.053423263132572174, 0.1200215220451355, 0.028978686779737473, -0.12355383485555649, -0.049122769385576248, 0.079342156648635864, 0.11495166271924973, 0.022798953577876091, 0.047268994152545929, 0.12885661423206329, 0.1195400059223175, -0.064356118440628052, 0.025876367464661598, 0.12651830911636353, -0.088325344026088715, -0.059517208486795425, 0.02209709957242012, 0.15148714184761047, -0.02075846865773201, 0.13987144827842712, 0.030379354953765869, 0.013152762316167355, -0.056584525853395462, 0.070050947368144989, 0.072730638086795807, -0.079041332006454468, -0.055792432278394699, 0.12523359060287476, -0.053192544728517532, 0.0507025346159935, -0.0070047127082943916, -0.07194732129573822, 0.039229739457368851, 0.065659172832965851, -0.032158013433218002, -0.060667175799608231, -0.0086568538099527359, 0.014219895005226135, -0.042939174920320511, -0.045165479183197021, 0.1130707859992981, 0.059517234563827515, 0.075504228472709656, -0.092118322849273682, -0.09766097366809845, -0.0051711625419557095, 0.10680418461561203, 0.052686005830764771, -0.078196898102760315, -0.16078135371208191, 0.012052488513290882, -0.0097398580983281136, -0.054616879671812057, -0.093059659004211426, 
  -0.031082538887858391, 0.04377305880188942, 0.00070205784868448973, 0.11162815243005753, 0.012834673747420311, -0.032984022051095963, -0.066987007856369019, 0.099404565989971161, -0.081841468811035156, 0.028240811079740524, 0.12038511037826538, -0.024195658043026924, 0.10984540730714798, -0.077647864818572998, -0.098662443459033966, -0.0027822116389870644, 0.035754147917032242, 0.081079855561256409, 0.091974459588527679, -0.018660135567188263, -0.12304174900054932, -0.1179981455206871, -0.019945630803704262, 0.10533645004034042, -0.12269849330186844, -0.10620877146720886, -0.12639957666397095, 0.061072353273630142, 0.09974978119134903, 0.061685055494308472, 0.10473469644784927, -0.118879534304142, -0.036415442824363708, -0.062734417617321014, 0.033022236078977585, -0.04513954371213913, 0.065715134143829346, 0.018392659723758698, -0.055851232260465622, -0.10342053323984146, -0.032320551574230194, 0.074981413781642914, -0.037878401577472687, 0.00084372534183785319, -0.019251486286520958, 0.066360160708427429, -0.013825285248458385, 0.034807465970516205, -0.022969095036387444, -0.11386733502149582, 0.040811650454998016, 0.093943953514099121, 0.0029621620196849108, -0.1132776290178299, 0.044552955776453018, -0.12016916275024414, -0.035849083214998245, -0.063011035323143005, 0.059704698622226715, -0.090505793690681458, -0.012998501770198345, 0.11042715609073639, -0.040683615952730179, -0.10218775272369385, -0.089591994881629944, 0.10858465731143951, 0.13878299295902252, -0.11209398508071899, 0.076103575527667999, -0.039202515035867691, 0.014260456897318363, -0.054119806736707687, -0.086037956178188324, -0.0022729185875505209, 0.027071291580796242, 0.13347750902175903, -0.057641912251710892, -0.079798869788646698, 
  -0.13124085962772369, 0.069581359624862671, -0.047144636511802673, 0.14612551033496857, -0.032917618751525879, 0.068700097501277924, 0.041580405086278915, 0.009552917443215847, -0.036341618746519089, 0.06933179497718811, 0.027707617729902267, 0.065917514264583588, -0.060440968722105026, 0.057174474000930786, 0.013036804273724556, -0.037504058331251144, 0.084183193743228912, 0.021192975342273712, 0.0029454957693815231, 0.046277750283479691, 0.1398647278547287, 0.062047671526670456, -0.048963967710733414, -0.047400418668985367, 0.120850570499897, 0.0029017969500273466, -0.06086958572268486, 0.035498533397912979, 0.092212699353694916, -0.11337938159704208, -0.0054140691645443439, 0.046914737671613693, -0.076020725071430206, -0.066642872989177704, -0.012427081353962421, -0.081456176936626434, 0.00045707254321314394, 0.12994800508022308, 0.1157853826880455, 0.029360802844166756, -0.012557467445731163, 0.032736677676439285, 0.065120287239551544, 0.013388718478381634, -0.0031608769204467535, -0.036496907472610474, -0.088009022176265717, -0.11403995007276535, -0.11196945607662201, -0.11625462770462036, 0.096512630581855774, 0.11970064043998718, 0.053989928215742111, 0.10893552005290985, -0.049794334918260574, 0.050039831548929214, -0.089816324412822723, -0.012590213678777218, -0.083331041038036346, -0.08166930079460144, -0.044962212443351746, -0.12931831181049347, 0.079739071428775787, -0.026545820757746696, 0.017203975468873978, 0.10255797952413559, -0.097127608954906464, -0.014243560843169689, 0.14539819955825806, 0.10438545048236847, -0.099861897528171539, -0.17451764643192291, -0.14085337519645691, -0.096398264169692993, -0.030209735035896301, 0.005070224404335022, -0.055070206522941589, 0.054308276623487473, 
  -0.020540384575724602, 0.059094987809658051, 0.078060254454612732, -0.056504398584365845, -0.020987890660762787, -0.11575757712125778, 0.014367282390594482, 0.049807261675596237, -0.13328011333942413, -0.13613545894622803, -0.085036076605319977, 0.02285134419798851, -0.034138377755880356, 0.032821763306856155, -0.042726125568151474, 0.10763495415449142, -0.018521346151828766, -0.016486799344420433, -0.10042618215084076, -0.13173678517341614, 0.11155024915933609, -0.0040916111320257187, 0.073200099170207977, -0.0067469021305441856, 0.09719877690076828, -0.018703386187553406, 0.041388522833585739, -0.081829629838466644, -0.042043101042509079, -0.021205507218837738, 0.027362491935491562, 0.087355516850948334, -0.083468183875083923, -0.061372712254524231, -0.091302260756492615, 0.0024159287568181753, 0.10625103116035461, 0.083469510078430176, -0.066907055675983429, 0.054716382175683975, 0.13206250965595245, 0.0026069730520248413, -0.12167226523160934, -0.089086398482322693, -0.0976686030626297, -0.027970047667622566, 0.03318554162979126, -0.13579793274402618, 0.0095822708681225777, 0.080077588558197021, 0.0063534826040267944, -0.1372951865196228, -0.095780394971370697, -0.097413264214992523, -0.12053723633289337, -0.062634319067001343, -0.063602328300476074, -0.038827374577522278, 0.070597387850284576, 0.071187347173690796, -0.13253842294216156, 0.082389794290065765, -0.13531434535980225, -0.045329879969358444, 0.037576243281364441, 0.095348410308361053, 0.12170170992612839, -0.080143630504608154, 0.061689894646406174, -0.052256278693675995, 0.11420977115631104, -0.071570888161659241, -0.0075922673568129539, 0.02715601958334446, 0.042119130492210388, 0.0044174483045935631, -0.10835003107786179, -0.035642806440591812, 
  -0.032211985439062119, 0.068082213401794434, -0.0052113858982920647, 0.0054965256713330746, -0.1004548966884613, -0.10473265498876572, 0.023193297907710075, -0.10788174718618393, 0.04546477273106575, -0.065841808915138245, -0.034833662211894989, -0.047049771994352341, -0.023274606093764305, 0.023972461000084877, -0.071520388126373291, 0.10871809720993042, 0.041437715291976929, -0.060221564024686813, -0.023830264806747437, 0.073925226926803589, 0.033174004405736923, -0.089374653995037079, 0.11114034801721573, 0.066200777888298035, -0.092601887881755829, -0.072150878608226776, 0.005866331048309803, 0.11017037183046341, -0.13905729353427887, -0.10743287205696106, -0.12799148261547089, -0.082705058157444, 0.075664222240447998, 0.12061150372028351, 0.033704895526170731, -0.074905268847942352, 0.091297559440135956, -0.021835844963788986, -0.043694175779819489, 0.066352717578411102, -0.030565392225980759, -0.098489977419376373, 0.11812238395214081, -0.11671098321676254, -0.079677894711494446, 0.041066627949476242, 0.054997988045215607, -0.11842890083789825, 0.10016333311796188, -0.10974367707967758, 0.10805162787437439, 0.06429610401391983, 0.11426817625761032, -0.12898027896881104, -0.02857644110918045, -0.12085244804620743, -0.025700516998767853, 0.015648728236556053, -0.11828047782182693, 0.10711859166622162, -0.10545089840888977, 0.11250557005405426, -0.058224830776453018, -0.0013662124983966351, -0.12470313161611557, 0.063168175518512726, 0.14132826030254364, 0.085650444030761719, 0.00079826975706964731, 0.060436341911554337, 0.044951677322387695, -0.11626943200826645, 0.07469400018453598, -0.014202381484210491, 0.10089317709207535, -0.023826075717806816, -0.0047721615992486477, -0.082725033164024353, 
  -0.031086089089512825, 0.057395454496145248, -0.098555289208889008, 0.027002949267625809, 0.034307923167943954, -2.7512207452673465e-05, -0.09428703784942627, 0.01743118092417717, -0.050316598266363144, 0.065997473895549774, 0.13674893975257874, -0.11124654114246368, -0.0090921884402632713, -0.08156941831111908, 0.066990524530410767, 0.093406043946743011, -0.04490945115685463, -0.043508183211088181, -0.011890223249793053, 0.059529118239879608, -0.0042203329503536224, -0.072185277938842773, -0.070668838918209076, -0.12983337044715881, -0.095848001539707184, 0.11356305330991745, 0.01105036586523056, 0.04294855147600174, 0.06627674400806427, -0.070053279399871826, -0.032634526491165161, 0.12171360105276108, -0.11597007513046265, -0.12001418322324753, -0.10259203612804413, 0.10095632821321487, 0.068137906491756439, -0.11695275455713272, 0.0048231128603219986, -0.10847265273332596, 0.12793236970901489, 0.11181502789258957, 0.037562720477581024, 0.13011205196380615, -0.037067901343107224, 0.077893055975437164, 0.1480136513710022, 0.097900554537773132, -0.082953460514545441, 0.088263049721717834, -0.074512012302875519, -0.0037965099327266216, 0.085268527269363403, 0.19009704887866974, -0.09565657377243042, -0.074692405760288239, 0.12943138182163239, 0.12004895508289337, -0.00019724684534594417, 0.028060855343937874, 0.12378139048814774, 0.094850175082683563, -0.096038125455379486, 0.11179368942975998, 0.0040045310743153095, -0.034555461257696152, -0.094344824552536011, 0.011803495697677135, 0.019772274419665337, 0.034852154552936554, -0.060944654047489166, -0.065085865557193756, -0.011089193634688854, -0.061611723154783249, -0.16710323095321655, -0.12719902396202087, -0.12339416891336441, -0.11265940964221954, 
  -0.038304377347230911, -0.097003504633903503, -0.024593032896518707, 0.019119596108794212, -0.12847945094108582, 0.059805184602737427, 0.011442245915532112, -0.066905371844768524, 0.042387548834085464, 0.066084474325180054, -0.0039802123792469501, -0.04062996432185173, 0.068422988057136536, -0.081947587430477142, 0.11106184870004654, 0.098565250635147095, -0.048221174627542496, -0.11198630183935165, -0.10427719354629517, -0.10871411114931107, 0.10591001063585281, 0.063520394265651703, -0.11471478641033173, 0.081838026642799377, -0.090703442692756653, -0.10744646936655045, -0.014989066869020462, -0.05197950080037117, 0.018999101594090462, 0.059963207691907883, -0.084365949034690857, -0.048438582569360733, 0.13136875629425049, -0.0738048255443573, -0.10487177968025208, 0.10565485060214996, -0.057018768042325974, 0.10159756988286972, 0.057490471750497818, -0.052282523363828659, 0.046512022614479065, -0.04161405935883522, 0.012569704093039036, -0.097326837480068207, 0.081801362335681915, 0.0035881542135030031, -0.027557838708162308, 0.01001272164285183, -0.095348425209522247, -0.06446509063243866, 0.061179593205451965, -0.026190659031271935, 0.044415637850761414, 0.02347269095480442, 0.11076481640338898, 0.043995112180709839, 0.12558966875076294, -0.055956806987524033, 0.036849368363618851, -0.11735867708921432, -0.054417096078395844, -0.004840826615691185, -0.0081967534497380257, -0.027910156175494194, 0.12622174620628357, 0.014358540065586567, -0.11356274783611298, -0.11729433387517929, 0.090852625668048859, 0.018758667632937431, -0.095404818654060364, -0.11400159448385239, 0.094356924295425415, 0.075066164135932922, -0.05666736513376236, -0.0061348318122327328, 0.083906255662441254, -0.0037406566552817822, 
  0.10071543604135513, 0.043103724718093872, -0.055723730474710464, 0.056425351649522781, -0.037785150110721588, -0.1115972176194191, -0.12696321308612823, -0.0029301899485290051, 0.10204727202653885, 0.10967392474412918, 0.041161801666021347, -0.07818150520324707, 0.089752964675426483, -0.05648457258939743, 0.033499207347631454, -0.087510287761688232, -0.036478348076343536, 0.0088012535125017166, -0.085003018379211426, 0.062075581401586533, 0.11429045349359512, -0.076236903667449951, -0.075901433825492859, -0.0017762599745765328, 0.053365997970104218, -0.063387751579284668, 0.045935433357954025, -0.026642026379704475, -0.015978718176484108, 0.046972934156656265, 0.050993658602237701, -0.080969206988811493, 0.050714503973722458, 0.065347328782081604, -0.001326926052570343, 0.046813342720270157, -0.0202607661485672, 0.10297147184610367, 0.10308651626110077, 0.073731191456317902, -0.11062166094779968, -0.065273113548755646, 0.014068166725337505, 0.090059094130992889, -0.032475721091032028, 0.064940817654132843, 0.050815414637327194, 0.064207404851913452, 0.020431702956557274, 0.1801430881023407, 0.032233353704214096, 0.0074603687971830368, -0.097388505935668945, 0.0341782346367836, -0.095935143530368805, 0.015081249177455902, -0.02953350730240345, -0.023004472255706787, -0.0059124613180756569, -0.03855297714471817, 0.11489009857177734, 0.081838041543960571, -0.064017660915851593, 0.07929576188325882, 0.099760852754116058, 0.0084961596876382828, 0.064072012901306152, -0.015081390738487244, -0.14267036318778992, 0.030748145654797554, 0.02398020401597023, -0.04180227592587471, 0.1474328339099884, -0.034438256174325943, 0.025477141141891479, 0.10405705124139786, -0.08863338828086853, 0.10544589161872864, 
  0.060041528195142746, 0.0075980620458722115, -0.024529259651899338, -0.074100881814956665, 0.14923873543739319, 0.089654020965099335, -0.0067060850560665131, 0.016586877405643463, 0.055021170526742935, 0.055629543960094452, 0.050110418349504471, -0.087103873491287231, -0.004929558839648962, 0.13959807157516479, -0.081828832626342773, -0.071839079260826111, 0.074269406497478485, 0.09404001384973526, -0.047654520720243454, 0.086000695824623108, -0.016385424882173538, 0.091232851147651672, 0.010170680470764637, -0.083889588713645935, -0.048905614763498306, 0.01918395422399044, -0.012745101004838943, 0.13550269603729248, -0.10117655992507935, -0.0080475686118006706, 0.044684138149023056, 0.031823515892028809, 0.052728641778230667, 0.021916130557656288, 0.11961742490530014, 0.010192357003688812, -0.015722744166851044, 0.080338999629020691, 0.011870954185724258, -0.09581100195646286, 0.0054946811869740486, -0.0020243192557245493, -0.1051175445318222, -0.072890914976596832, 0.041245400905609131, -0.10265994071960449, -0.061111330986022949, 0.00043046710197813809, 0.16698697209358215, -0.09341016411781311, 0.078816980123519897, -0.0049228360876441002, -0.051861897110939026, 0.029051598161458969, -0.083949945867061615, 0.039298880845308304, -0.053251542150974274, -0.030601255595684052, 0.056641850620508194, 0.082814283668994904, 0.076828166842460632, 0.037211101502180099, 0.12875941395759583, -0.0095529891550540924, 0.060046359896659851, 0.039799544960260391, -0.086947411298751831, 0.052629884332418442, 0.03187248483300209, 0.0068402350880205631, -0.057656332850456238, 0.11279819905757904, -0.13821206986904144, -0.052697934210300446, 0.062836937606334686, 0.13741095364093781, -0.11503224819898605, -0.012641296721994877, 
  0.08215872198343277, 0.0080225476995110512, -0.052070863544940948, -0.017153235152363777, -0.13431182503700256, 0.007009606808423996, 0.0035368127282708883, 0.0099014109000563622, -0.094322249293327332, 0.11189582943916321, -0.10451077669858932, -0.0033026386518031359, 0.046860713511705399, -0.13241438567638397, -0.20592370629310608, 0.015719985589385033, 0.083043448626995087, 0.0064353980123996735, 0.0024485881440341473, 0.080343201756477356, -0.11532458662986755, -0.085038140416145325, -0.093604907393455505, 0.078451506793498993, -0.026724150404334068, -0.11192698776721954, 0.065224558115005493, -0.044819142669439316, -0.076117992401123047, -0.057744242250919342, -0.15734393894672394, -0.024015730246901512, -0.0046977070160210133, 0.10130961984395981, 0.11345737427473068, 0.1214599683880806, 0.028678283095359802, 0.037868879735469818, -0.11415596306324005, -0.061006646603345871, 0.052457071840763092, 0.098580457270145416, 0.13310092687606812, 0.033150158822536469, 0.046579573303461075, -0.097406275570392609, -0.014518396928906441, 0.054545428603887558, -0.091421864926815033, -0.15650582313537598, -0.0012502463068813086, -0.052331332117319107, -0.058279033750295639, 0.04383305087685585, 0.044671617448329926, 0.13738535344600677, 0.08653152734041214, -0.085202500224113464, 0.076296992599964142, 0.039256226271390915, -0.10389123857021332, 0.030026022344827652, 0.030602442100644112, 0.068692311644554138, 0.018401764333248138, 0.091012552380561829, 0.13601960241794586, 0.029494395479559898, 0.12289451062679291, 0.0062261489219963551, 0.030687091872096062, -0.14436806738376617, -0.11422575265169144, -0.05905986949801445, 0.011631849221885204, -0.076855629682540894, -0.099503114819526672, -0.065045714378356934, 
  -0.023840848356485367, -0.088018856942653656, -0.0099166445434093475, -0.11966508626937866, -0.023935144767165184, 0.032208427786827087, -0.067648299038410187, -0.1294642835855484, 0.093767404556274414, -0.042318228632211685, -0.1141621321439743, 0.11784017086029053, -0.0048671313561499119, 0.048712562769651413, 0.038267146795988083, -0.039650227874517441, 0.040640659630298615, -0.014001947827637196, 0.09006868302822113, 0.083685249090194702, 0.056274127215147018, 0.046580050140619278, -0.034874800592660904, 0.022448740899562836, 0.0042863842099905014, -0.11035729199647903, -0.044473357498645782, 0.015064136125147343, -0.12030016630887985, 0.010329373180866241, -0.072775073349475861, -0.024318534880876541, 0.063791565597057343, 0.081735961139202118, -0.028200222179293633, 0.11442927271127701, 0.019917599856853485, -0.093495577573776245, 0.014918569475412369, 0.041502416133880615, -0.0017825242830440402, 0.016256203874945641, 0.002954170573502779, -0.0089090047404170036, -0.023622618988156319, -0.025203606113791466, -0.071704946458339691, -0.025509882718324661, 0.085713289678096771, -0.051418907940387726, -0.050400279462337494, 0.037307493388652802, -0.065689839422702789, -0.040008258074522018, -0.02596680074930191, 0.1197604164481163, -0.091664761304855347, -0.082218393683433533, -0.08294425904750824, 0.091442957520484924, -0.095434077084064484, -0.13126981258392334, 0.082998931407928467, 0.12191615253686905, 0.09352315217256546, 0.012361973524093628, 0.12000273913145065, 0.069386638700962067, -0.097794480621814728, 0.033800724893808365, 0.065684057772159576, 0.063402973115444183, -0.11961448192596436, 0.098782151937484741, -0.06018008291721344, 0.086355775594711304, -0.0343773253262043, -0.11653818190097809, 
  -0.13337992131710052, 0.047034811228513718, -0.072106830775737762, 0.12510240077972412, 0.072491869330406189, 0.032713707536458969, 0.041069366037845612, -0.13466860353946686, -0.046120516955852509, -0.13239848613739014, -0.03883599117398262, 0.017469564452767372, -0.006195231806486845, 0.075048692524433136, -0.035964261740446091, 0.10926519334316254, 0.0038350757677108049, 0.07979285717010498, -0.042588833719491959, -0.021125447005033493, 0.10569599270820618, 0.042601555585861206, 0.098767884075641632, -0.089167565107345581, 0.10607080906629562, 0.08376283198595047, -0.0076211662963032722, -0.043473854660987854, 0.049856234341859818, -0.054426737129688263, -0.13462233543395996, 0.11761394888162613, -0.027124349027872086, 0.083098992705345154, 0.076845355331897736, 0.082752913236618042, -0.13252395391464233, -0.037295922636985779, -0.15108589828014374, 0.061601702123880386, -0.056917235255241394, -0.039884261786937714, 0.018605703487992287, -0.11540927737951279, -0.021939272060990334, 0.10372146964073181, -0.094261772930622101, -0.014764952473342419, -0.036775480955839157, -0.1424446702003479, 0.040531039237976074, 0.082464896142482758, -0.045666873455047607, -0.043363966047763824, 0.13424204289913177, -0.060062095522880554, -0.021992044523358345, 0.094654984772205353, -0.080895490944385529, -0.059362199157476425, -0.074256643652915955, 0.051398809999227524, 0.0324380062520504, 0.077000446617603302, -0.17484664916992188, -0.006852294784039259, -0.033770032227039337, 0.074606955051422119, 0.097865782678127289, -0.0073353061452507973, -0.037700150161981583, -0.053861387073993683, -0.1204034611582756, -0.15435181558132172, -0.079915359616279602, -0.15313078463077545, -0.050174321979284286, -0.015312112867832184, 
  0.19650666415691376, -0.024609707295894623, -0.064562708139419556, 0.056769069284200668, -0.14254756271839142, -0.065716244280338287, -0.018995098769664764, -0.0050656776875257492, 0.021865969523787498, -0.029749598354101181, 0.10448487102985382, 0.098001450300216675, -0.032367099076509476, -0.11092109233140945, -0.14483152329921722, 0.077277287840843201, -0.032694973051548004, -0.066153950989246368, -0.095956191420555115, -0.11036080121994019, 0.066441312432289124, 0.08954206109046936, 0.019141240045428276, 0.02890290878713131, 0.14867326617240906, -0.026945976540446281, -0.038522079586982727, -0.082191668450832367, -0.086049839854240417, -0.093171484768390656, -0.16143156588077545, 0.09713466465473175, 0.13119153678417206, -0.066558942198753357, -0.052246216684579849, 0.13001789152622223, 0.091661229729652405, 0.13388501107692719, -0.080957643687725067, -0.12994121015071869, -0.12225606292486191, -0.091238602995872498, -0.10296523571014404, -0.039700910449028015, -0.11126993596553802, -0.075434312224388123, -0.029779136180877686, 0.092601083219051361, -0.030939551070332527, 0.11471991240978241, 0.00084282789612188935, 0.0033645157236605883, -0.05125562846660614, -0.099114559590816498, -0.071668043732643127, 0.16277043521404266, -0.0092990733683109283, 0.12869097292423248, 0.0011022582184523344, 0.033116448670625687, 0.10510946810245514, 0.022368665784597397, -0.033551603555679321, -0.070679523050785065, 0.012420166283845901, -0.11669514328241348, 0.22319351136684418, 0.04986543208360672, 0.10363992303609848, -0.012330491095781326, 0.051429077982902527, 0.035662725567817688, -0.095199353992938995, 0.21140629053115845, 0.0010673610959202051, -0.10849885642528534, -0.14666904509067535, -0.043433401733636856, 
  0.058647908270359039, 0.049503229558467865, 0.087559744715690613, -0.14239509403705597, -0.11321474611759186, -0.047682732343673706, 0.06942092627286911, 0.035274438560009003, -0.088318295776844025, 0.065204888582229614, 0.052267327904701233, 0.0012779881944879889, 0.095245674252510071, -0.044811729341745377, 0.13195253908634186, 0.13021485507488251, -0.10547754168510437, -0.090457335114479065, -0.031933460384607315, -0.097759880125522614, 0.12622085213661194, 0.010275917127728462, 0.033501282334327698, -0.10767302662134171, 0.086589306592941284, -0.0072914436459541321, 0.13374747335910797, -0.048070225864648819, -0.084698393940925598, 0.027418963611125946, 0.060895547270774841, -0.095112189650535583, -0.080296888947486877, -0.044834800064563751, 0.045157253742218018, -0.016194142401218414, -0.12338424474000931, 0.069138780236244202, 0.099002160131931305, 0.083781763911247253, -0.013736720196902752, -0.1629500538110733, 0.050169602036476135, 0.1051911860704422, 0.0003584341611713171, 0.11569032818078995, -0.056500822305679321, 0.09964374452829361, 0.081258013844490051, 0.065696805715560913, 0.12604233622550964, -0.078462690114974976, -0.048205897212028503, -0.014390253461897373, 0.13134196400642395, 0.065668165683746338, -0.10203413665294647, 0.08087565004825592, -0.040553923696279526, 0.038226395845413208, 0.15495185554027557, 0.0884828120470047, -0.042103789746761322, 0.17057164013385773, -0.037171211093664169, -0.01087751891463995, -0.0050456742756068707, 0.052388109266757965, -0.06074996292591095, 0.030675001442432404, 0.018965194001793861, -0.0058244820684194565, -0.057768426835536957, 0.014062622562050819, 0.060505427420139313, 0.14963398873806, -0.037086788564920425, 0.014697040431201458, 
  0.029935307800769806, 0.043683767318725586, 0.062585555016994476, -0.029536588117480278, 0.039273582398891449, -0.12402630597352982, 0.061278004199266434, 0.1089019849896431, 0.0076090344227850437, 0.11904203146696091, -0.13684156537055969, -0.072640553116798401, 0.10927016288042068, 0.12563386559486389, -0.12045241892337799, -0.11815603822469711, 0.14358100295066833, -0.14334070682525635, -0.034257251769304276, -0.018312035128474236, -0.0020558037795126438, -0.08338194340467453, 0.022010060027241707, -0.045585185289382935, -0.10679952800273895, 0.043565820902585983, -0.084593482315540314, -0.10616136342287064, 0.013415290042757988, -0.037529945373535156, -0.051896587014198303, -0.10059762746095657, 0.07798515260219574, -0.10187063366174698, 0.034987024962902069, 0.067186497151851654, 0.027961788699030876, -0.091138318181037903, 0.0016753867967054248, -0.13178274035453796, 0.019326997920870781, 0.11139126121997833, -0.11498941481113434, -0.12443620711565018, -0.12110175937414169, 0.0097557539120316505, 0.10521300137042999, -0.051180839538574219, 0.00064835778903216124, 0.079541392624378204, -0.15694805979728699, -0.09388529509305954, -0.076551035046577454, -0.074103370308876038, -0.0042290370911359787, 0.066458538174629211, -0.0048146792687475681, -0.12619337439537048, -0.082544796168804169, -0.13382405042648315, 0.0051978649571537971, -0.025495138019323349, 0.0014663890469819307, -0.11279170960187912, 0.0010020360350608826, 0.10219408571720123, 0.052615351974964142, 0.050160262733697891, 0.013719169422984123, -0.0035016546025872231, 0.030930308625102043, 0.023723676800727844, 0.0053595462813973427, -0.047707244753837585, -0.14854612946510315, -0.03916902095079422, -0.14852270483970642, 0.090444572269916534, 
  0.0049710371531546116, -0.11388643085956573, 0.075644522905349731, -0.031830616295337677, 0.069501370191574097, 0.059017114341259003, -0.08404066413640976, 0.038619056344032288, -0.1220441609621048, -0.062042780220508575, 0.099722251296043396, 0.071457080543041229, 0.038979034870862961, 0.05653083324432373, 0.10397515445947647, -0.14464880526065826, -0.026744827628135681, -0.11371637135744095, -0.086007751524448395, -0.10711982101202011, 0.0525185726583004, 0.0072043975815176964, -0.010258886963129044, 0.060434915125370026, -0.010530798695981503, 0.033538989722728729, 0.076821766793727875, -0.16484846174716949, 0.030438007786870003, -0.020469361916184425, -0.037249013781547546, 0.063035041093826294, -0.066744886338710785, 0.09668605774641037, 0.047930158674716949, 0.0063474015332758427, 0.067210927605628967, -0.085193924605846405, -0.11682853847742081, 0.073657937347888947, -0.14382322132587433, 0.065709412097930908, 0.061697941273450851, -0.12984518706798553, -0.038593947887420654, 0.029726114124059677, 0.046704314649105072, -0.063993737101554871, -0.091266676783561707, -0.14157383143901825, -0.099386557936668396, 0.067291833460330963, -0.011639416217803955, -0.035163950175046921, 0.040274884551763535, -0.012653044424951077, 0.088596977293491364, 0.0053974268957972527, 0.081864766776561737, -0.07733532041311264, 0.028345322236418724, -0.018571916967630386, 0.094632305204868317, 0.09619605541229248, -0.09335743635892868, -0.014321706257760525, 0.048494197428226471, -0.11752163618803024, 0.11985784024000168, -0.042491834610700607, 0.071171790361404419, -0.11887314170598984, -0.069374166429042816, 0.045847397297620773, -0.075336344540119171, -0.01597302220761776, 0.10595521330833435, 0.032717768102884293, 
  -0.10791833698749542, 0.013001593761146069, 0.085067711770534515, 0.092752709984779358, 0.0055929678492248058, 0.058753419667482376, -0.052282165735960007, 0.018150394782423973, -0.016661573201417923, -0.020945208147168159, 0.11995165050029755, 0.099190428853034973, 0.14108850061893463, 0.074609547853469849, 0.04121018573641777, 0.070650175213813782, 0.027383163571357727, 0.082516670227050781, -0.041551847010850906, -0.081641174852848053, 0.1394672691822052, 0.14488284289836884, 0.0051489290781319141, 0.0020669710356742144, -0.10227622836828232, -0.073665522038936615, -0.14709828794002533, -0.11340461671352386, -0.026915449649095535, 0.12683968245983124, -0.047935012727975845, 0.022110920399427414, 0.023815065622329712, 0.11166082322597504, 0.088874317705631256, 0.14210326969623566, 0.0025459276512265205, -0.03981616348028183, -0.03629862517118454, 0.089124299585819244, -0.03156498447060585, 0.10597103834152222, -0.018809180706739426, -0.12314657866954803, -0.1106046661734581, 0.13600814342498779, -0.002698526019230485, 0.036179222166538239, 0.04471924901008606, 0.044813323765993118, -0.028828201815485954, 0.077448569238185883, -0.035202141851186752, -0.054416462779045105, 0.099323056638240814, 0.064529024064540863, 0.11008636653423309, -0.12386013567447662, 0.026698285713791847, 0.088922329246997833, -0.008939855732023716, -0.087315313518047333, 0.077413506805896759, -0.066031597554683685, 0.050296898931264877, 0.081727132201194763, -0.087820254266262054, -0.13697510957717896, 0.024013413116335869, 0.0098790358752012253, -0.011171728372573853, -0.011106577701866627, -0.00090366904623806477, -0.073831774294376373, 0.078839093446731567, -0.11375883221626282, -0.13820771872997284, -0.098925545811653137, 
  -0.13055849075317383, -0.082453295588493347, -0.021082645282149315, -0.063890129327774048, 0.11234690994024277, 0.10100669413805008, -0.13252425193786621, 0.0085635529831051826, -0.092116698622703552, 0.091230049729347229, 0.11648654192686081, 0.05461554229259491, -0.0034903483465313911, -0.11559082567691803, 0.12388531863689423, 0.071265310049057007, 0.086650878190994263, -0.13607098162174225, 0.10230612754821777, -0.069358937442302704, -0.11343512684106827, -0.05823458731174469, 0.049073565751314163, -0.028555445373058319, 0.023152446374297142, -0.061108924448490143, 0.039205186069011688, -0.048534061759710312, -0.12132535129785538, -0.10238960385322571, -0.020471267402172089, -0.043471276760101318, -0.11308197677135468, 0.0065882746130228043, -0.12587939202785492, -0.090715788304805756, 0.075642511248588562, -0.076844595372676849, 0.021211637184023857, -0.0027274333406239748, 0.072295926511287689, -0.049214761704206467, 0.032099761068820953, -0.11606624722480774, 0.064485892653465271, 0.061089601367712021, -0.074894115328788757, 0.1073920950293541, 0.055367138236761093, 0.084266647696495056, -0.015616096556186676, -0.0081249726936221123, 0.064282111823558807, -0.031670447438955307, 0.031013870611786842, -0.089384324848651886, 0.033150602132081985, -0.063383139669895172, 0.13661187887191772, -0.052000649273395538, -0.098613083362579346, -0.111639104783535, -0.014888482168316841, 0.028658192604780197, -0.10847938060760498, 0.12057308852672577, 0.069841302931308746, 0.11858825385570526, 0.057037211954593658, -0.06089484691619873, 0.053530685603618622, -0.1035551130771637, 0.091960176825523376, 0.061205379664897919, 0.13464739918708801, -0.076986789703369141, 0.095593929290771484, 0.020595472306013107, 
  -0.12637311220169067, 0.079658128321170807, -0.12377934157848358, 0.055744361132383347, 0.054465863853693008, 0.10515652596950531, 0.045717421919107437, 0.069233514368534088, 0.045659229159355164, 0.045331567525863647, -0.10408134013414383, -0.075358830392360687, -0.13621021807193756, -0.058791141957044601, 0.074114277958869934, 0.097131252288818359, 0.026894479990005493, 0.04775826632976532, -0.06447022408246994, -0.065710932016372681, -0.057548083364963531, 0.084455586969852448, -0.13105465471744537, 0.088335566222667694, -0.0066748159006237984, 0.1066625565290451, -0.05791858583688736, 0.066274702548980713, -0.10459950566291809, -0.066956549882888794, -0.089853525161743164, 0.029428724199533463, 0.073044084012508392, 0.00095485144993290305, -0.02332676574587822, -0.029848333448171616, 0.035552468150854111, 0.025453340262174606, 0.031686276197433472, -0.0075463592074811459, 0.011612094938755035, 0.00036812893813475966, -0.020206211134791374, -0.088399186730384827, 0.10865303874015808, -0.0097953276708722115, 0.0018089381046593189, -0.070788107812404633, -0.055739946663379669, 0.082726120948791504, 0.013075712136924267, 0.120681032538414, 0.032658502459526062, -0.011727262288331985, 0.10418737679719925, 0.12147291004657745, -0.0037576830945909023, 0.060259278863668442, 0.037200510501861572, -0.058984439820051193, -0.063779763877391815, 0.074012242257595062, 0.013348031789064407, 0.13012632727622986, -0.032267041504383087, -0.12622323632240295, 0.10545856505632401, 0.10440201312303543, 0.07161790132522583, -0.014040209352970123, 0.062931545078754425, 0.069838456809520721, 0.034144315868616104, 0.11935210227966309, 0.12464751303195953, 0.12349260598421097, -0.078468635678291321, 0.10788067430257797, 
  0.11174889653921127, -0.055250726640224457, 0.03246317058801651, -0.099633373320102692, -0.11388786882162094, 0.055119544267654419, 0.058743789792060852, -0.11584999412298203, -0.067071735858917236, -0.019353736191987991, -0.11171741783618927, -0.034187715500593185, 0.020514994859695435, 0.044556219130754471, 0.039019618183374405, -0.098381295800209045, -0.082159772515296936, 0.068493708968162537, -0.13213978707790375, -0.1080918163061142, 0.064759962260723114, -0.12338370084762573, -0.053985044360160828, 0.020374417304992676, -0.058169353753328323, 0.076811820268630981, -0.021302742883563042, -0.0059693679213523865, 0.034529965370893478, -0.035448767244815826, -0.056976400315761566, 0.052115850150585175, 0.061530612409114838, 0.10955820977687836, -0.0092577310279011726, 0.038578256964683533, -0.091315813362598419, 0.078253604471683502, -0.019257616251707077, -0.0021417648531496525, -0.026934918016195297, 0.037120137363672256, -0.022972770035266876, -0.08043748140335083, 0.0615573450922966, -0.079412125051021576, -0.023828340694308281, -0.090277187526226044, 0.045662768185138702, -0.098813176155090332, 0.048593752086162567, 0.089123710989952087, -0.040069971233606339, -0.061195705085992813, 0.10098758339881897, 0.098029352724552155, -0.08084946870803833, -0.0800933837890625, 0.0058060144074261189, 0.035896755754947662, 0.051956202834844589, -0.10107847303152084, 0.077887304127216339, -0.16265985369682312, -0.11789356917142868, -0.047189481556415558, 0.070178955793380737, 0.11763232201337814, -0.068102352321147919, -0.04674149677157402, -0.11567344516515732, -0.06819654256105423, -0.13294486701488495, 0.038342006504535675, -0.030385991558432579, -0.067928709089756012, 0.06425824761390686, -0.03625381737947464, 
  -0.075420357286930084, -0.010347377508878708, -0.013797641731798649, 0.0051692146807909012, -0.015526534058153629, 0.054450996220111847, -0.12489192187786102, -0.13725584745407104, 0.11288565397262573, 0.035513252019882202, 0.097436457872390747, 0.087516032159328461, 0.06042252853512764, 0.11301231384277344, 0.088063009083271027, 0.115846186876297, 0.0057503529824316502, 0.074760869145393372, 0.04002026841044426, 0.082013346254825592, -0.0046382900327444077, 0.10985278338193893, -0.10462649911642075, -0.10644324868917465, 0.041521642357110977, -0.060353022068738937, 0.018413333222270012, 0.080252595245838165, -0.14192792773246765, 0.063512593507766724, 0.017613910138607025, -0.1108081042766571, -0.07250048965215683, 0.10551548004150391, 0.099711775779724121, -0.033804535865783691, -0.09787740558385849, -0.075290173292160034, -0.018009752035140991, -0.058589916676282883, 0.097214072942733765, 0.096799857914447784, -0.10732318460941315, -0.083206303417682648, 0.099770568311214447, -0.010351345874369144, -0.14201299846172333, 0.030934223905205727, 0.063817672431468964, 0.028353717178106308, 0.079235091805458069, -0.12051748484373093, 0.089888572692871094, 0.041048623621463776, 0.018398471176624298, -0.021391686052083969, 0.043626543134450912, 0.053986050188541412, -0.074062861502170563, -0.049780994653701782, -0.053453929722309113, 0.013109990395605564, -0.049991223961114883, 0.04849647730588913, -0.099629148840904236, -0.13501589000225067, -0.088233679533004761, 0.086137033998966217, -0.044436931610107422, 0.034965086728334427, 0.08553033322095871, -0.076352760195732117, 0.022698856890201569, 0.17217187583446503, -0.025589566677808762, 0.02823907695710659, 0.12272026389837265, 0.13839477300643921, 
  0.035258449614048004, -0.029995769262313843, 0.031400412321090698, 0.067963540554046631, -0.07633354514837265, 0.048023626208305359, 0.045062098652124405, 0.043457277119159698, 0.01070526335388422, 0.011253206990659237, 0.11563532799482346, 0.070706643164157867, -0.1159832552075386, 0.069067977368831635, 0.040308892726898193, 0.11188070476055145, 0.040958099067211151, 0.014457134529948235, 0.04945644736289978, -0.021889427676796913, 0.016563454642891884, -0.054539807140827179, -0.021576674655079842, -0.1308320164680481, 0.032611873000860214, -0.10991352051496506, -0.076409459114074707, -0.054639797657728195, -0.016226550564169884, 0.051793143153190613, 0.10794437676668167, -0.05287899449467659, -0.089424930512905121, -0.10981452465057373, -0.034388672560453415, 0.0067956186830997467, 0.036875743418931961, 0.022126756608486176, 0.0277512576431036, 0.043861608952283859, 0.018341962248086929, -0.045028164982795715, 0.090805284678936005, -0.11117354035377502, 0.04619232565164566, -0.041931755840778351, 0.081689320504665375, 0.044420458376407623, 0.05402325838804245, 0.12328194081783295, -0.10129239410161972, 0.064597122371196747, 0.098069459199905396, -0.013732780702412128, -0.016912100836634636, -0.011201044544577599, -0.005498823244124651, 0.097337864339351654, -0.070087552070617676, 0.06655159592628479, -0.10533378273248672, -0.088049307465553284, -0.0046605500392615795, 0.19779859483242035, 0.17035375535488129, -0.051380060613155365, -0.13613252341747284, 0.028734708204865456, 0.054916471242904663, -0.05154617503285408, -0.13524292409420013, 0.070555746555328369, -0.051196347922086716, -0.11180660128593445, 0.096280977129936218, -0.084537215530872345, -0.098065577447414398, -0.0015612163115292788, 
  -0.034081257879734039, -0.13071127235889435, -0.041887290775775909, -0.014194630086421967, -0.0023745894432067871, -0.069429345428943634, -0.0041464865207672119, 0.12405814230442047, 0.12708897888660431, 0.13384567201137543, 0.0099387913942337036, -0.043031096458435059, -0.072931863367557526, 0.094013527035713196, -0.1045893132686615, -0.054143570363521576, -0.12293036282062531, -0.013724721968173981, 0.077679336071014404, -0.1198420450091362, -0.13024783134460449, 0.092751443386077881, 0.034801334142684937, 0.083129465579986572, 0.02069525420665741, 0.069049268960952759, -0.0015381723642349243, 0.10728973150253296, -0.055515669286251068, -0.076613783836364746, -0.00029836595058441162, -0.028831608593463898, -0.10714711248874664, -0.1337752491235733, -0.1302897185087204, -0.10558008402585983, -0.0071882158517837524, 0.047775015234947205, -0.06142803281545639, -0.11037832498550415, 0.036289170384407043, -0.11025990545749664, -0.11584824323654175, -0.068500243127346039, -0.12348465621471405, -0.069898545742034912, -0.0035093873739242554, 0.081119537353515625, 0.055342242121696472, 0.061990633606910706, -0.068348772823810577, 0.090943574905395508, -0.026601903140544891, 0.017750293016433716, 0.078721523284912109, 0.023813128471374512, -0.05498012900352478, -0.077847644686698914, -0.041360214352607727, -0.091198235750198364, 0.11829675734043121, 0.13199584186077118, -0.091017171740531921, -0.10822051763534546, 0.010981783270835876, 0.030046418309211731, 0.092631176114082336, -0.026990920305252075, -0.040085457265377045, -0.071818992495536804, 0.035798907279968262, -0.11153354495763779, -0.050108775496482849, -0.016561999917030334, 0.089950799942016602, 0.087675094604492188, 0.13212622702121735, 0.064509674906730652, 
  0.10094240307807922, 0.065120577812194824, 0.063010416924953461, -0.039836052805185318, -0.14314192533493042, -0.022344695404171944, 0.10822013020515442, -0.10803823918104172, -0.019167628139257431, 0.0086712324991822243, 0.0065417368896305561, -0.045282259583473206, 0.057183120399713516, -0.12191735208034515, 0.082722857594490051, 0.056705180555582047, 0.050593383610248566, 0.1200188472867012, -0.13893547654151917, -0.045423775911331177, -0.038025718182325363, -0.072950802743434906, -0.017570210620760918, 0.045434419065713882, -0.036584403365850449, -0.018450906500220299, -0.072088710963726044, 0.054199982434511185, 0.063485994935035706, 0.093170486390590668, -0.10848335921764374, -0.056583911180496216, -0.11884541809558868, -0.012721431441605091, -0.047296985983848572, 0.031547743827104568, -0.07066681981086731, -0.13411621749401093, -0.052154511213302612, 0.082983188331127167, -0.035900771617889404, -0.0048359818756580353, -0.10919786989688873, 0.01770259253680706, 0.062658153474330902, 0.028512811288237572, -0.039954561740159988, 0.062040369957685471, -0.07069665938615799, -0.084931246936321259, 0.13796982169151306, 0.089375078678131104, 0.069576673209667206, -0.1259123831987381, 0.056394979357719421, -0.080335468053817749, 0.010673768818378448, -0.11940105259418488, -0.087041661143302917, -0.085559822618961334, -0.08675093948841095, 0.020076934248209, -0.11217797547578812, 0.059701520949602127, 0.0016388437943533063, -0.10243082046508789, -0.017450973391532898, -0.1203518882393837, 0.0063376179896295071, -0.10612861812114716, 0.093447856605052948, 0.0020735661964863539, 0.13941957056522369, -0.10464992374181747, -0.027629207819700241, 0.066853217780590057, -0.053638458251953125, 0.10379361361265182, 
  -0.010499431751668453, -0.038086555898189545, -0.06518881767988205, -0.045880820602178574, -0.0088662318885326385, 0.01830364391207695, -0.06866929680109024, 0.12172463536262512, 0.0252973772585392, -0.085020363330841064, -0.11846489459276199, 0.073291867971420288, 0.12719443440437317, 0.0243575070053339, -0.024237887933850288, 0.072613492608070374, -0.1335102766752243, -0.059499010443687439, -0.056790817528963089, -0.078751996159553528, -0.061495151370763779, -0.058124281466007233, -0.064829021692276001, 0.073108270764350891, -0.058439072221517563, 0.0018047566991299391, 0.051504265516996384, -0.082886017858982086, 0.08920944482088089, -0.12730225920677185, -0.053500153124332428, 0.13548006117343903, 0.017787031829357147, 0.027213986963033676, -0.067206606268882751, 0.11786336451768875, 0.065756179392337799, 0.01192759070545435, -0.1320280134677887, -0.073936760425567627, 0.053517576307058334, 0.10165818780660629, 0.091607213020324707, 0.0016674748621881008, -0.13025398552417755, 0.073411338031291962, -0.091915793716907501, -0.017829740419983864, -0.10222892463207245, -0.024997755885124207, 0.010485666804015636, -0.0030538404826074839, -0.045549985021352768, -0.17071805894374847, 0.038234226405620575, 0.044125910848379135, 0.14043989777565002, -0.091574504971504211, -0.11910329759120941, -0.027106782421469688, 0.13214890658855438, 0.047253116965293884, 0.036346536129713058, -0.15526118874549866, 0.034931886941194534, -0.053724989295005798, -0.025646016001701355, -0.093373283743858337, 0.013639169745147228, -0.087901681661605835, 0.051734145730733871, 0.075620956718921661, 0.070776417851448059, 0.10193132609128952, 0.029370101168751717, -0.055381059646606445, 0.061829008162021637, -0.045984208583831787, 
  0.09820982813835144, -0.11995866894721985, 0.10769866406917572, 0.051530167460441589, -0.042253676801919937, 0.11013179272413254, 0.10948291420936584, 0.0382731594145298, 0.025193441659212112, -0.092281214892864227, -0.030152341350913048, -0.10963793843984604, 0.12982958555221558, -0.02766161784529686, -0.011754650622606277, -0.023616034537553787, 0.05310889333486557, 0.11031656712293625, -0.028854507952928543, 0.057362411171197891, -0.095526158809661865, 0.10392586141824722, -0.066102847456932068, -0.091044321656227112, -0.03352128341794014, 0.037736602127552032, -0.10079800337553024, -0.096935763955116272, 0.039512399584054947, 0.079442515969276428, -0.042323146015405655, -0.0030917474068701267, -0.056251667439937592, 0.060632798820734024, -0.12292198091745377, 0.035823319107294083, -0.10895691812038422, 0.01089954748749733, -0.11560926586389542, -0.12569513916969299, 0.16183719038963318, 0.069403171539306641, 0.050346512347459793, 0.01312909834086895, -0.025975285097956657, 0.11017684638500214, 0.12813736498355865, 0.097586244344711304, -0.053064949810504913, 0.1281702071428299, 0.12653985619544983, -0.027304213494062424, 0.020121769979596138, 0.16093342006206512, 0.036156143993139267, 0.12384238839149475, -0.0044754296541213989, 0.039292678236961365, -0.016501007601618767, -0.018059644848108292, -0.079243727028369904, -0.057867903262376785, -0.094810374081134796, -0.085295155644416809, 0.083113729953765869, 0.03225969523191452, 0.14226225018501282, 0.063957192003726959, -0.02461165189743042, 0.12162036448717117, -0.030743217095732689, 0.0091205108910799026, 0.028058318421244621, 0.0050669028423726559, -0.057585548609495163, -0.058777492493391037, -0.075445301830768585, -0.087706379592418671, 
  -0.12579655647277832, -0.14286713302135468, -0.10840419679880142, 0.0621943399310112, 0.066835813224315643, 0.035493854433298111, -0.023165168240666389, 0.062278162688016891, 0.074213311076164246, -0.037789102643728256, 0.10367211699485779, 0.0088385827839374542, -0.048470214009284973, -0.0059147514402866364, -0.10251320153474808, 0.0040652514435350895, -0.061256181448698044, 0.01194869726896286, 0.00521891750395298, 0.084879755973815918, -0.11277615278959274, 0.11603387445211411, 0.054100211709737778, 0.075562886893749237, -0.1196986511349678, 0.024309581145644188, -0.11199977993965149, -0.076583988964557648, 0.068875841796398163, 0.048976495862007141, -0.057534363120794296, 0.058020405471324921, 0.082626268267631531, -0.0019403640180826187, 0.026149623095989227, 0.017403006553649902, -0.081453241407871246, -0.080996841192245483, -0.072831675410270691, 0.021233413368463516, 0.12529511749744415, 0.11066479980945587, -0.028895227238535881, 0.040267784148454666, 0.16399653255939484, -0.077071450650691986, 0.058708176016807556, 0.012124565429985523, -0.016077820211648941, -0.033114887773990631, -0.043602161109447479, 0.080120034515857697, 0.16242006421089172, 0.048811141401529312, -0.092649444937705994, -0.0036903556901961565, 0.04273538663983345, 0.093868039548397064, 0.046749811619520187, -0.039149537682533264, 0.085396163165569305, 0.0052921012975275517, 0.13479478657245636, 0.070187784731388092, 0.14513130486011505, -0.028756635263562202, -0.053947988897562027, -0.085625283420085907, 0.03692081943154335, 0.10419163107872009, -0.022057229653000832, 0.022874193266034126, 0.11534272879362106, -0.10668408870697021, 0.023606905713677406, -0.061666857451200485, -0.017665557563304901, -0.077709756791591644, 
  -0.075522460043430328, 0.0021272976882755756, -0.052190329879522324, 0.049844261258840561, 0.013740913011133671, 0.070551663637161255, -0.11986894905567169, 0.12768043577671051, 0.078674711287021637, -0.025612903758883476, -0.052051208913326263, 0.045384518802165985, 0.052077785134315491, 0.079649530351161957, 0.1004636138677597, -9.1212757979519665e-05, -0.086478538811206818, -0.093944288790225983, 0.041072554886341095, -0.033764928579330444, 0.1118655800819397, 0.063296563923358917, 0.099383048713207245, 0.083263307809829712, -0.092726729810237885, -0.092405267059803009, -0.018056511878967285, -0.12589630484580994, -0.043362949043512344, -0.11729945987462997, -0.077173374593257904, -0.0018151240656152368, -0.071352295577526093, 0.018253752961754799, -0.049941658973693848, 0.092680856585502625, -0.08258625864982605, -0.084607452154159546, -0.077680565416812897, 0.077022150158882141, 0.090560175478458405, -0.10430851578712463, 0.046700403094291687, 0.085086442530155182, -0.022012200206518173, 0.10270165652036667, -0.12114118039608002, -0.022465473040938377, 0.13391473889350891, 0.13589216768741608, 0.045275524258613586, 0.086327202618122101, 0.074174784123897552, -0.055515214800834656, 0.119101881980896, -0.012813610956072807, -0.093735411763191223, -0.012770569883286953, 0.0087510040029883385, -0.080577731132507324, 0.12225884199142456, 0.071415647864341736, -0.017258277162909508, -0.046288300305604935, -0.037092249840497971, 0.050817564129829407, 0.066613234579563141, 0.03480803593993187, -0.13380996882915497, 0.089442342519760132, -0.034109365195035934, -0.016039783135056496, -0.11090680211782455, 0.064066216349601746, 0.046192120760679245, -0.066499806940555573, 0.082355611026287079, 0.076111666858196259, 
  0.0030392922926694155, 0.091134242713451385, 0.094576075673103333, -0.002320585772395134, -0.076890446245670319, -0.055198807269334793, 0.11356080323457718, 0.13516721129417419, -0.0041627027094364166, -0.079676203429698944, -0.027243871241807938, -0.070921085774898529, -0.050191957503557205, -0.078278675675392151, -0.093982599675655365, -0.070311576128005981, -0.063188508152961731, 0.029013397172093391, 0.037074461579322815, -0.081554807722568512, 0.072700239717960358, -0.064199090003967285, 0.10201088339090347, 0.023772591724991798, -0.089899316430091858, 0.083403587341308594, 0.087606914341449738, -0.08822380006313324, 0.06643851101398468, 0.021280102431774139, -0.015203484334051609, 0.073505967855453491, 0.020149486139416695, 0.12810249626636505, -0.040466330945491791, -0.081194363534450531, -0.075031310319900513, -0.081563495099544525, 0.067998535931110382, -0.06621888279914856, -0.09818074107170105, 0.043820284307003021, -0.10661713033914566, 0.056949149817228317, 0.10609468817710876, 0.039366621524095535, 0.094573944807052612, 0.03976762667298317, 0.077156782150268555, -0.030271830037236214, 0.027572212740778923, 0.078752793371677399, 0.0076105766929686069, 0.13771882653236389, 0.1030702143907547, -0.019455777481198311, 0.021939817816019058, 0.0125025799497962, 0.1286674290895462, -0.01544331107288599, 0.13576212525367737, 0.07858574390411377, -0.010471201501786709, -0.088245674967765808, -0.026389067992568016, -0.028732838109135628, 0.008414451964199543, 0.093691706657409668, -0.076528578996658325, -0.02408001571893692, -0.086656913161277771, -0.12482959032058716, -0.030314072966575623, -0.10534486174583435, 0.095627330243587494, 0.057961039245128632, -0.081841029226779938, -0.048566043376922607, 
  -0.012785059399902821, -0.087275929749011993, 0.028597399592399597, 0.11077679693698883, -0.13555039465427399, -0.069355063140392303, 0.10283654928207397, 0.12132278084754944, -0.099843539297580719, 0.057181742042303085, 0.010783596895635128, -0.061522647738456726, -0.04027889296412468, -0.1143907755613327, -0.023330509662628174, 0.012988490052521229, 0.12155874818563461, -0.13751222193241119, 0.077064402401447296, 0.036601070314645767, 0.069485865533351898, -0.066389366984367371, -0.045625906437635422, -0.021664012223482132, 0.033120650798082352, 0.076250351965427399, 0.1141299307346344, -0.060554958879947662, 0.070273242890834808, -0.11629214137792587, 0.082524590194225311, -0.11095768958330154, -0.044666621834039688, -0.082283355295658112, 0.1174309030175209, -0.015264400281012058, 0.13717059791088104, 0.041110396385192871, 0.041829295456409454, -0.083937928080558777, -0.11567689478397369, 0.095299556851387024, -0.12279858440160751, 0.049267377704381943, 0.069690272212028503, 0.11436279863119125, -0.086490936577320099, 0.046653248369693756, -0.1400606781244278, -0.027532065287232399, 0.060443729162216187, 0.023431673645973206, 0.11881019175052643, 0.061011429876089096, 0.13615277409553528, -0.06006336584687233, -0.11054661870002747, -0.061510354280471802, -0.064134597778320312, -0.11568842828273773, 0.019190505146980286, -0.12524609267711639, -0.024425694718956947, -0.078520327806472778, 0.02353588305413723, -0.10451136529445648, 0.030911289155483246, 0.019931022077798843, 0.10984967648983002, -0.10514199733734131, -0.033138591796159744, -0.15632940828800201, 0.047697596251964569, 0.044481869786977768, -0.16944132745265961, 0.05879652127623558, 0.11236483603715897, -0.054173432290554047, 
  -0.065832540392875671, 0.048406846821308136, -0.027438437566161156, -0.13422694802284241, -0.027537589892745018, -0.12633316218852997, -0.083473265171051025, 0.10354221612215042, -0.11919505149126053, 0.10601493716239929, 0.057433705776929855, 0.11766184121370316, -0.068611450493335724, 0.076960526406764984, -0.17119874060153961, -0.10933384299278259, 0.012104720808565617, 0.097401134669780731, -0.058550406247377396, -0.0028349605854600668, 0.12273773550987244, 0.033448778092861176, 0.045081112533807755, 0.11591888964176178, 0.024661509320139885, 0.091998308897018433, 0.049273811280727386, -0.062632434070110321, 0.024525148794054985, 0.013598974794149399, 0.038445014506578445, -0.08285648375749588, 0.1296810656785965, 0.12380997836589813, 0.10165195167064667, -0.054103061556816101, -0.050152748823165894, 0.11262120306491852, 0.073415905237197876, 0.052655439823865891, 0.040449049323797226, 0.088772222399711609, -0.075904972851276398, -0.086542680859565735, -0.045699920505285263, 0.047838032245635986, -0.089566424489021301, -0.078506387770175934, 0.0021341696847230196, 0.017032979056239128, 0.053340435028076172, 0.07093464583158493, -0.12911471724510193, -0.010657912120223045, 0.093197576701641083, -0.04065709188580513, 0.050685606896877289, 0.12523804605007172, 0.10095009207725525, -0.096909642219543457, -0.050165571272373199, -0.10439795255661011, -0.12836089730262756, 0.10053073614835739, 0.0016031487612053752, -0.067877277731895447, -0.10466204583644867, 0.13484442234039307, 0.10535891354084015, -0.042852047830820084, -0.10361867398023605, -0.17045991122722626, -0.085707820951938629, -0.0050931228324770927, -0.010468488559126854, -0.0774880051612854, -0.03021450899541378, 0.038534414023160934, 
  0.070086017251014709, 0.015621271915733814, -0.049339637160301208, 0.085515841841697693, 0.069751255214214325, 0.046682775020599365, 0.13787533342838287, 0.020981224253773689, 0.10393976420164108, 0.022583477199077606, 0.073590397834777832, -0.049057524651288986, -0.11967121809720993, 0.098438650369644165, 0.16067367792129517, -0.045959312468767166, 0.07935621589422226, -0.051122691482305527, 0.12819498777389526, -0.032369591295719147, -0.094668202102184296, 0.14897507429122925, 0.054403148591518402, -0.09186573326587677, 0.062489133328199387, 0.041807893663644791, 0.12430311739444733, 0.043716207146644592, -0.11790681630373001, 0.066961511969566345, 0.047005966305732727, -0.075709320604801178, -0.053997185081243515, -0.087422750890254974, 0.13681678473949432, -0.011403524316847324, 0.07964722067117691, 0.10768364369869232, 0.060303829610347748, -0.0052468893118202686, 0.072254978120326996, -0.088564023375511169, 0.03436635434627533, -0.11177107691764832, -0.074610359966754913, -0.077795654535293579, 0.029421523213386536, -0.030562825500965118, 0.15151113271713257, 0.11150883138179779, -0.0749521404504776, 0.0083570955321192741, 0.10548051446676254, -0.02779722772538662, -0.018596271052956581, -0.12422069162130356, 0.057316061109304428, -0.088301286101341248, 0.11995419859886169, 0.052444271743297577, -0.049819093197584152, 0.076429158449172974, -0.048124991357326508, -0.11256023496389389, -0.060320466756820679, -0.11963547766208649, -0.071138247847557068, 0.0033315066248178482, 0.030432716012001038, -0.050475291907787323, -0.078620932996273041, -0.072709888219833374, -0.053670018911361694, 0.018625354394316673, 0.18412548303604126, 0.073797322809696198, -0.033734899014234543, -0.00022490601986646652, 
  0.1227588877081871, 0.11197137087583542, -0.06839539110660553, 0.012283961288630962, 0.038441341370344162, 0.13842003047466278, -0.035278961062431335, -0.058553636074066162, 0.13978952169418335, -0.021878533065319061, -0.11408305913209915, 0.025658015161752701, 0.11213602870702744, -0.015923090279102325, -0.0015812002820894122, -0.098067842423915863, -0.023536309599876404, 0.058911923319101334, 0.10931935906410217, 0.032251954078674316, 0.11597772687673569, -0.041379038244485855, -0.04067312553524971, -0.063861533999443054, 0.12746024131774902, 0.12344060093164444, -0.10625150054693222, 0.063878729939460754, -0.01562582328915596, 0.044246282428503036, 0.11012762784957886, -0.013879322446882725, 0.025552185252308846, -0.11906465142965317, 0.078220069408416748, -0.10806051641702652, -0.091324292123317719, -0.069397605955600739, 0.084119588136672974, 0.0086774788796901703, 0.097015842795372009, 0.062979720532894135, 0.020229058340191841, -0.016127973794937134, 0.11753170192241669, -0.018588569015264511, 0.031422413885593414, -0.1141454353928566, 0.12878145277500153, 0.14241105318069458, -0.041093256324529648, 0.093890413641929626, 0.10625875741243362, 0.039135236293077469, -0.16512146592140198, 0.095934703946113586, -0.13027371466159821, 0.032605130225419998, 0.066834330558776855, -0.028636777773499489, 0.091909855604171753, 0.093940652906894684, 0.082679875195026398, 0.0058448179624974728, 0.026575339958071709, -0.084420271217823029, 0.081168800592422485, 0.089608460664749146, 0.060035198926925659, 0.11025182157754898, -0.01093535590916872, -0.072483338415622711, 0.040876518934965134, -0.023702044039964676, 0.034044500440359116, 0.043810885399580002, 0.023064253851771355, -0.0056153144687414169, 
  -0.13699142634868622, -0.05304364487528801, -0.020589381456375122, -0.13069984316825867, -0.057320475578308105, -0.13697232306003571, -0.0010091370204463601, 0.1338086873292923, -0.076340533792972565, -0.071628183126449585, -0.032257046550512314, -0.047772210091352463, 0.10438325256109238, 0.13044218719005585, -0.10077249258756638, 0.038781672716140747, 0.0024589304812252522, -0.09287726879119873, 0.085280828177928925, 0.1191883459687233, 0.13584066927433014, -0.12006648629903793, 0.020460888743400574, -0.037428818643093109, 0.074052080512046814, -0.028836809098720551, 0.084730848670005798, -0.024675961583852768, -0.086763620376586914, -0.073690272867679596, -0.022317355498671532, 0.10768245160579681, -0.079478569328784943, 0.079909481108188629, -0.064445652067661285, -0.068250678479671478, 0.0048803901299834251, 0.1102224588394165, 0.021614056080579758, 0.17511418461799622, -0.098783060908317566, -0.09598822146654129, 0.069584041833877563, 0.023116305470466614, 0.032416246831417084, 0.043285690248012543, -0.043099869042634964, -0.094292134046554565, -0.024725055322051048, -0.043868158012628555, 0.13820210099220276, -0.073728181421756744, -0.030748810619115829, 0.060911145061254501, 0.0033246853854507208, 0.05834047868847847, 0.015244831331074238, 0.044254761189222336, -0.12012004107236862, 0.04399547353386879, 0.01811647042632103, 0.066868916153907776, 0.13862791657447815, 0.012681500054895878, 0.12486524134874344, 0.050948362797498703, -0.10916651785373688, -0.068273410201072693, 0.074355326592922211, 0.041012302041053772, 0.050185225903987885, -0.11334287375211716, -0.012320781126618385, -0.10229336470365524, -0.1040058508515358, -0.010943221859633923, -0.040254682302474976, -0.060203604400157928, 
